783 100
topping -0.5160992 0.3217152 -0.06080319 -0.04860293 -0.25411347 0.4868573 -0.48239502 0.07054165 -0.1345163 -0.42942032 -0.54073954 0.6013209 0.09771744 0.86360806 0.28764758 0.2469256 -0.034668554 -0.5596372 0.18848439 0.06827707 -0.39691752 0.22938624 0.004447146 0.32328904 0.41968137 0.017666679 0.072329 0.34722227 0.1932813 -0.05418848 -0.013484552 -0.43879643 -0.6252492 -0.039185148 0.63940537 -0.1769392 0.45175356 0.30031475 -0.37192753 -0.106223956 0.07235562 0.49364123 0.27818164 -0.2037276 -0.37260872 -0.15470754 -0.20397817 -0.26712248 0.46377286 -0.19636276 0.42868176 -0.0054378603 -0.22121595 -0.08910295 0.1105236 -0.6823199 0.07946497 0.26994556 0.07200745 -0.14908145 0.4230158 -0.24179158 0.31802726 0.24948531 0.010612688 0.16891143 -0.22111359 0.17668834 -0.15404223 -0.5664021 0.22927329 -0.43494874 -0.04177206 -0.25373343 0.32889807 -0.15443231 0.18732661 0.0037733533 -0.0023020096 -0.16517629 0.27441078 0.284039 -0.15061583 0.102655396 0.0008201546 0.45570567 -0.27269468 0.0070293546 0.29896536 0.05329528 0.04210652 0.6932901 0.25125074 -0.28581145 1.2909006 0.4446949 0.08648692 -0.017200781 -0.038784813 -0.034183007
of -0.24041384 0.07936341 0.24875455 -0.24574915 0.049859606 0.42457592 -0.21921097 0.247531 0.07695499 0.090368144 -0.28951967 0.5808302 0.23590508 0.63885534 0.6054814 0.43478104 -0.2997062 -0.22933312 -0.18028001 0.18125916 -0.743332 0.00243713 0.28068244 0.07035579 0.41592902 -0.49778163 -0.24204329 -0.045636967 0.037464794 -0.016178982 0.03707061 -0.031654976 -0.42537743 0.19847316 0.3112261 -0.019586993 0.17881359 -0.23424111 -0.24293755 -0.22379084 0.0567051 0.024186697 -0.057216246 -0.34821448 0.26021263 -0.14680566 -0.08399403 -0.31666067 0.43096575 -0.30257556 0.43680507 -0.030471284 0.11819661 -0.074083835 -0.24708843 -0.15585986 -0.18975294 0.12808202 -0.2141548 -0.045837164 0.33810365 -0.03272116 0.018158058 0.3437792 0.17688169 0.26739195 -0.026840676 -0.14378989 0.13439246 -1.0811476 0.4034072 -0.34886527 -0.0187555 -0.25376487 0.3970435 -0.3230966 0.26600167 0.09793764 -0.00016201063 -0.121534966 0.17222567 0.14593866 -0.18545377 0.2499557 -0.37475225 0.35423303 -0.560088 -0.15425813 0.28107283 -0.14743784 0.27832285 0.4575919 0.15087813 0.0378594 0.6719633 0.32995752 0.16845734 -0.2806377 -0.3637968 -0.39652336
has -0.41335782 0.44327015 0.0005231094 0.15293622 -0.21121404 -0.02703331 -0.057790533 0.470877 -0.074343786 0.0011537042 -0.48162994 0.48670602 0.1798347 0.2823222 0.5037412 -0.19585852 -0.34822387 -0.7242161 0.14928456 0.32162273 -0.8195951 0.061724514 0.072329454 0.20669965 0.026504304 0.089388 -0.39830318 0.43744913 0.023970805 -0.24311724 0.17955568 -0.011208825 -0.8777172 0.3811693 0.31498623 0.064963125 0.25650355 -0.13548848 -0.2389783 0.2055374 -0.28057817 0.15431365 -0.08691512 0.02891789 0.010114789 -0.2680827 0.05132835 -0.24180594 0.6085608 -0.04600479 0.20087816 0.10822099 -0.04991468 -0.35642636 0.13151318 -0.622157 -0.027756883 -0.07345476 -0.049551345 -0.1203332 0.3836667 -0.34390795 0.16485223 0.5067906 0.16963069 0.33450884 -0.175603 0.0429328 0.16727586 -0.5635409 0.09547032 -0.52252036 -0.29866415 -0.219304 -0.01054948 -0.2025759 -0.32018644 0.33260006 -0.28033713 -0.41318673 -0.2879956 0.3496197 -0.07197827 0.055898264 0.14657387 0.26369882 -0.6546022 -0.08391946 0.21529846 -0.22784142 0.15904796 0.24863541 0.10536988 -0.01845461 0.8119287 0.2718895 0.18770948 -0.05596217 -0.24339648 -0.3523007
subclassof -0.2516247 0.4880964 -0.306139 0.20070648 -0.07282945 0.13306905 -0.30826455 0.34881628 0.09090232 -0.20624302 -0.49342248 0.48273155 0.032657534 0.32347775 0.6903351 0.518623 -0.035705842 -0.5692484 0.048150696 0.07023731 -0.6132747 -0.20952794 0.20476192 0.37596822 0.23413123 -0.3163237 -0.24910577 -0.06255465 0.10719227 -0.029585026 0.017205615 -0.1877955 -0.32879484 0.33473966 0.33700377 0.329568 0.14012705 0.11797639 -0.1112185 0.1933808 0.38686296 -0.13902022 0.34666774 -0.12625453 0.3737344 -0.61734855 0.088847995 0.16636766 0.5724785 -0.09121185 0.3312785 0.065614216 -0.17906277 0.23120005 -0.054146342 -0.07971034 -0.13892668 0.025861638 -0.042077556 -0.056203004 0.14984295 -0.26144332 0.11837329 0.378914 0.09955688 0.21927491 -0.5039548 0.29531762 0.09462982 -0.5230439 0.18573098 -0.3853686 -0.025753781 -0.28816107 0.18341598 -0.20326552 0.36870655 0.0002195657 -0.311047 -0.0050014798 -0.16955237 0.44455436 -0.33080477 0.11932927 -0.22817877 -0.107468344 -0.6225087 0.04928919 0.3852714 -0.29695037 0.052434895 0.43956405 0.07097838 -0.07607852 0.55470926 0.23525064 -0.0029442203 -0.19110307 -0.1451818 -0.4121649
pizza 0.068778284 0.40384007 -0.07321105 0.17594983 -0.013296552 0.28388512 -0.42123723 0.15328212 0.02484013 -0.48358223 -0.43317258 0.44768223 0.0061014527 0.16611803 -0.07146452 0.28486046 0.16818413 -0.5819299 -0.23031661 0.4683152 -0.28883368 -0.28333217 0.53038573 0.15134245 0.02171744 -0.48942554 -0.1525629 0.33983842 -0.02269724 0.0962146 -0.26047674 0.40965497 -0.5531831 -0.14476952 0.87167376 -0.11983289 0.26353803 0.11918568 0.15213817 -0.034947973 0.03759664 0.034633104 -0.10391695 -0.5741822 -0.0013160328 -0.23181146 -0.18804066 -0.012110529 0.45694023 -0.20242563 0.7144151 0.2425084 0.06983714 -0.22854683 -0.02473224 -0.58098847 -0.24442846 0.10110848 -0.0017718336 -0.085559666 0.48942116 -0.3352447 0.103321396 0.2918203 -0.1600639 0.7469917 -0.17737293 -0.30908087 0.16096799 -0.72140044 0.57011145 -0.13826136 -0.4392027 -0.35845026 0.09521679 -0.16233057 0.05908523 -0.12962498 0.061649803 -0.58130896 -0.105152205 0.4889623 -0.41883987 0.37971312 -0.08406467 0.008969614 -0.42515373 -0.30999827 0.5830282 0.08805052 0.4463499 0.524601 -0.08819406 -0.24899693 0.59222037 0.38085905 -0.38317162 -0.1942811 0.043368526 -0.13888223
is -0.51358396 0.16120714 -0.2541718 0.3028136 -0.31008217 0.17767146 -0.45439982 -0.11114928 0.06891458 -0.39409032 -0.10625145 0.90632683 0.5602057 0.60883564 0.6098666 -0.10915585 0.020620633 -0.67924696 0.10399822 0.26546773 -0.5167318 -0.055520378 -0.13330413 0.12450035 0.21766943 -0.30294892 -0.05295929 0.20725214 0.3203506 0.17041905 0.16333531 -0.0780595 -0.8179085 0.14951497 0.38172218 0.041182622 0.032638542 -0.30925152 -0.17541267 -0.2038374 0.11234978 0.16951992 0.18210389 -0.57833934 -0.050090067 -0.5338446 -0.33299974 -0.385237 0.7819888 0.07758671 0.5944665 -0.035117593 -0.03177616 -0.10983135 0.22240297 -0.3636319 0.2865451 -0.027905524 0.012482494 -0.0709452 0.24054553 -0.30572605 0.18922055 0.21120876 0.35751182 0.18325488 -0.06468311 -0.31919935 0.20342019 -0.66611886 0.64764166 -0.19674236 -0.25243118 -0.2439096 -0.41183868 -0.15232465 0.04233123 -0.08344453 0.100903146 -0.15984608 -0.32542166 -0.005393177 -0.50037336 -0.10840609 -0.010768085 0.8093637 -0.23883381 -0.043494835 0.5415016 0.26346624 0.18886894 0.24391983 -0.15201317 0.14663917 0.6154064 0.42067266 0.2042766 -0.23020208 -0.30637178 -0.39366534
class -0.1900126 0.65071476 -0.1473131 0.0044978606 -0.099075206 0.29778022 -0.38619646 0.07628192 0.25853193 -0.038896967 -0.42395166 0.71153307 0.18395008 0.34761754 0.7917899 0.28598002 0.21608469 -0.58719397 -0.31859028 -0.20337687 -0.36919063 -0.31053677 -0.053733062 0.5864813 0.46302736 -0.44651127 -0.021699127 -0.075633295 0.19202775 -0.010451775 0.20544317 -0.24681064 -0.21553312 0.07233639 0.020950992 0.42594308 0.38074285 -0.22872834 0.04248328 0.4947079 0.34967902 0.07106187 0.19680306 -0.17660603 0.18929468 -0.63782483 -0.12175203 0.24093978 0.74440736 0.17082433 0.5017403 0.09121668 -0.06598451 0.15943211 -0.04598194 -0.16998877 0.00095018174 -0.019119762 -0.26151538 -0.45791656 -0.15743746 -0.36102554 -0.14584044 0.16587093 0.17210339 0.35576823 -0.17072329 -0.019545943 0.39032453 -0.7849974 0.45201853 -0.2590344 0.10569777 -0.28277296 0.1965321 -0.08865007 0.24620183 -0.08536689 -0.16248414 0.298625 -0.17537966 0.26809505 0.2911137 0.25005978 -0.23964466 0.14013289 -0.32689717 0.24390465 0.23165274 0.28157154 0.499796 0.43079463 0.12731849 0.29717788 0.30046245 0.260034 0.08829368 0.009614633 -0.43461213 -0.43344533
super -0.29859242 0.39401564 -0.21980871 0.35152042 -0.30647695 0.061700672 -0.44458118 -0.05466484 0.17345913 -0.17428023 0.14787212 0.432827 0.11457567 0.697289 0.67341506 0.24141414 0.13129511 -0.3112924 -0.2706288 0.096400075 -0.6348179 -0.06561419 0.37426353 0.07162522 0.41798988 -0.51870364 0.1186493 -0.12514329 0.1483391 0.11427997 0.29172397 -0.062149905 -0.12379754 0.32444277 0.36046013 0.14455579 0.17690082 -0.13225667 0.055767387 0.34693336 0.6672659 0.073591165 0.33883357 -0.51362085 0.19421786 -0.5134875 -0.07131938 0.32860032 0.61440235 -0.42190766 0.42196295 0.040575366 -0.08061448 0.5383109 -0.126831 -0.0975602 -0.06216464 -0.12715687 -0.30270168 0.01698132 -0.23562853 -0.056156658 0.1372031 0.46285966 0.18441197 0.2501025 -0.079109564 -0.12337613 -0.01640034 -0.46195596 0.2582784 -0.28717735 -0.25215793 -0.0468828 0.0060262866 0.0016195436 0.2564838 -0.052038997 -0.39918113 0.07482201 0.09415132 0.36334383 -0.24757439 0.29947534 -0.07245113 0.24650422 -0.5857736 0.04700371 0.55097514 -0.28802475 0.020545086 0.2847075 0.06996876 0.11503652 0.41244748 0.44441426 0.6067815 0.10512694 -0.6844538 -0.33249807
label -0.42620334 0.27375108 -0.031274054 0.034899734 -0.14068304 0.15142617 -0.29096833 0.2558885 0.10837907 -0.21682675 -0.25751603 0.47008315 0.18576305 0.3346861 0.65125215 0.4393373 -0.27720276 -0.3827699 -0.046939228 0.1066749 -0.6933729 0.14009649 0.052390244 0.052805874 0.021955127 -0.15057367 -0.14508314 0.12025675 0.24010387 0.0401429 0.036833506 -0.002038611 -0.49470276 0.32265413 0.409727 0.33257228 0.21707164 0.021318039 0.0056133233 0.1842861 0.11389051 0.32279372 0.029818978 -0.38360435 0.21218456 -0.60422635 -0.062422786 -0.018459044 0.7014944 0.1261783 0.2092657 0.12198105 -0.07408821 0.04627575 0.08920969 -0.26576668 -0.171361 -0.13578874 -0.13306534 -0.25721735 0.43775263 0.13350782 0.075361654 0.30907592 0.28080192 0.37231353 0.012110979 0.019237585 0.19811586 -0.6700381 0.33483347 -0.35111576 -0.09832153 -0.4059903 0.10804912 -0.18803547 0.033982534 -0.16872291 -0.3574704 0.08294805 0.09352018 0.4240008 0.04210892 0.16903283 -0.22878766 0.373688 -0.50832415 0.026196685 0.3686417 0.04012628 0.07104455 0.50447845 0.24752693 0.18332025 0.67636025 0.13922402 0.3389004 -0.15172741 -0.29032636 -0.5168613
preflabel -0.4263292 0.22677058 -0.05357119 0.102131456 -0.10382012 0.11762091 -0.33754215 0.26582408 0.088698305 -0.258711 -0.20439433 0.41073024 0.1234089 0.29652676 0.62689745 0.45577875 -0.23961674 -0.38255733 0.023901258 0.17621306 -0.6386001 0.10139042 0.06354607 0.036608778 0.052782055 -0.17674987 -0.08690532 0.06593582 0.24433452 0.07355854 0.059854727 -0.021619609 -0.43434307 0.40192145 0.3731958 0.20902935 0.24094187 0.003637313 0.103069656 0.13384989 0.04787076 0.267624 0.046253808 -0.3611907 0.20131117 -0.6287553 -0.02856598 -0.083174065 0.675071 0.10875204 0.18594576 0.12505986 -0.06756869 0.09775462 0.14743808 -0.2190524 -0.24120669 -0.08461641 -0.062873095 -0.28353828 0.42157945 0.044212893 0.094314285 0.3519168 0.21765932 0.34682608 -0.021147225 0.04571155 0.15177712 -0.5253334 0.2620214 -0.30490252 -0.17279625 -0.3164224 0.13598646 -0.19709374 0.030568479 -0.21320717 -0.32278493 0.13281465 0.103042856 0.44694602 -0.09511999 0.20647965 -0.24599679 0.38729548 -0.49815854 -0.079363294 0.29822972 0.051616922 -0.06698908 0.43751204 0.23527679 0.11004509 0.74699926 0.18487583 0.34772095 -0.16015074 -0.2692027 -0.53334695
http://www.w3.org/2000/01/rdf-schema#subClassOf -0.15274757 -0.1254782 0.108451396 0.2443967 -0.4366442 0.020798907 -0.09465227 0.2806781 -0.19412607 0.05650226 -0.54285777 0.46483248 -0.014612945 0.19347766 0.28743377 0.5001757 0.20375437 -0.14055476 -0.2777211 -0.018060284 -0.39995903 -0.49402183 0.2220246 0.81272537 -0.20005716 -0.14911811 -0.048713617 -0.14850391 -0.094033614 -0.1830651 0.23927313 -0.04624758 -0.10440743 0.74714315 -0.16432564 0.572288 -0.054267123 -0.22340858 0.27451238 0.19242807 -0.020084947 0.03246415 0.18562558 -0.1936255 -0.0036567692 -0.4890243 -0.10237564 0.46213338 0.46275544 0.04352478 -0.062028605 -0.31637043 -0.036313422 0.27882907 -0.3549945 0.006030664 -0.30272567 0.14835027 -0.5972064 -0.32686275 0.113938145 -0.20867127 -0.61876893 -0.1440814 0.5643642 -0.15144283 0.40393826 0.121306285 0.0426915 -0.6111988 0.55316025 -0.14240049 -0.19929408 -0.16153851 0.45742294 -0.20200402 0.3822829 -0.021049056 -0.15734935 0.1554021 0.050882753 -0.09799939 -0.5546083 0.45695794 -0.4518726 0.38633913 -0.03362401 -0.34922343 0.24279623 -0.15121667 0.025761325 0.52683276 -0.15249887 0.063187525 0.04438225 -0.042164776 0.5314918 -0.00044742282 -0.65414506 -0.15812425
spiciness -0.9795201 0.08714039 0.061642688 -0.37967736 -0.42247847 -0.13760214 -1.0217623 0.5881848 0.4388325 -0.7863561 -0.5472912 0.23740761 0.52473795 0.40833384 0.1576744 0.6827716 0.40001735 -0.20878756 0.20049645 0.022163097 -0.9983797 -0.3056135 -0.075957 0.22377883 0.21196899 0.033067036 -0.0060744183 0.44476002 0.6056551 0.16669987 0.051765308 0.12585072 -0.063696496 0.34857017 0.31148455 -0.29699424 0.35179412 0.19683367 0.019145945 0.42422414 -0.009164796 -0.04176681 0.23511425 0.10479783 -0.033107154 -0.31168926 0.122433275 -0.26356417 0.60942763 0.57581496 0.33541057 0.338794 -0.30878747 0.06866607 -0.22666341 -0.17675075 -0.24351269 0.3504908 -0.45465842 -0.2423807 0.2934625 0.0005609554 0.36873206 0.5059365 0.11685613 0.04682803 -0.19854306 0.106588885 0.5209002 -0.63181525 0.332482 -0.10371595 -0.38634193 -0.5605019 -0.41968304 -0.40816772 -0.07028689 -0.011747529 -0.23711012 -0.5561638 -0.15640411 0.85336924 -0.1233955 -0.0322009 -0.20419002 0.014597159 -0.6188485 0.011845317 0.33116475 -0.44025865 -0.17078246 0.36863822 -0.049716428 0.15699296 0.8186335 0.31879652 0.33464792 0.19590169 -0.013757544 -0.5557321
pizzatopping -0.48430896 0.63328373 0.14390399 -0.37269667 0.005051436 0.4595246 -0.867049 0.29726344 0.17267713 0.027777325 -0.14710066 0.86628234 0.11546635 0.6229927 0.080562055 0.105532505 0.22053431 -0.5706308 -0.5278978 0.49442053 -0.43603304 0.10865797 -0.27281234 0.3441911 0.011859604 -0.25736085 -0.20299585 0.23274013 -0.0074253245 0.06403933 0.23614661 -0.5958987 0.050390016 0.206813 0.61341435 -0.10335569 0.2932728 -0.18505576 0.55460083 0.24934296 0.0949329 0.3798109 0.51232 -0.595797 0.08520162 0.02023921 0.074073024 -0.09411703 0.34466234 -0.13708068 0.80503166 0.14207451 -0.18350291 0.2555728 0.3397535 -0.22335161 -0.17619878 0.45469192 -0.29495296 -0.00090922904 -0.4138821 0.29170755 -0.2125015 0.30334333 -0.35506526 0.48156995 -0.33657032 0.16678455 -0.0019884203 -0.24246848 0.59636873 -0.14911509 -0.08133157 -0.34455067 0.11300229 -0.24351296 -0.044821955 -0.17492352 -0.37772048 0.42501283 0.2753945 0.3432565 -0.18695882 0.5330179 0.040269297 -0.11641299 -0.5507179 -0.024818808 -0.14499135 0.2318544 -0.07662082 0.6010423 0.0029636284 0.24510004 0.7038472 0.565814 -0.02311972 0.10870496 -0.49169242 -0.28487664
http://www.semanticweb.org/owl2vec#superClassOf -0.012844191 -0.076770216 -0.025637608 0.3376494 -0.40767694 0.13338752 -0.24737321 -0.022027384 -0.15001805 0.16179778 -0.4166139 0.2945385 0.17201051 0.46636254 0.40999973 0.25441402 0.35730577 -0.15424173 -0.42173886 -0.0056774714 -0.4561173 -0.57515246 0.38666365 0.6922216 0.055146538 -0.0317547 0.081865795 -0.30892608 0.019725835 -0.16193533 0.16860647 0.022135831 -0.12021931 0.75561243 -0.055774804 0.5207633 0.061360467 -0.2573248 0.3238874 0.116106294 0.40976462 -0.13018908 0.05738325 -0.22054249 -0.3584547 -0.28285956 -0.15529233 0.33380604 0.5358423 0.10179534 -0.123603515 -0.24859846 -0.11878761 0.42110726 -0.34065428 -0.072860815 -0.24389547 0.07479488 -0.47833237 -0.22821043 -0.20361394 -0.31776267 -0.7295157 -0.105486594 0.62731385 -0.18148936 0.4566441 0.13002434 0.21271197 -0.5618793 0.32902804 -0.29771295 -0.2767512 -0.016897492 0.47571403 0.009083819 0.49967957 0.17365335 0.09630911 0.11208058 0.15242867 -0.0076779206 -0.5351215 0.53551227 -0.44682914 0.42497125 0.07753038 -0.3245383 0.38719338 -0.048246928 -0.12734446 0.59361994 0.045295935 -0.08617638 -0.014175331 0.19572493 0.46546453 -0.0066006593 -0.8992746 0.03755441
http://www.co-ode.org/ontologies/pizza/pizza.owl#hasTopping 0.0028011543 0.13976255 -0.1883613 -0.016923822 -0.7620453 -0.06247777 -0.21322967 0.27565223 -0.6164839 -0.43233046 -0.81078553 0.3950784 -0.27636603 0.57159007 0.16833153 0.2861883 0.17696148 -0.7528911 0.15891476 0.049345784 -0.28140995 -0.06592239 0.18028623 0.9186491 -0.18151979 0.4996004 0.0076723187 0.42750078 -0.1693909 -0.3550937 0.06307573 -0.33890995 -0.848876 0.27339172 0.20302507 -0.11932918 0.1724189 0.18677524 -0.28893417 0.13696602 0.0014179886 0.11122097 0.12810875 0.13471125 -0.5618697 -0.23942156 -0.058820296 0.32877383 0.24708195 -0.13873492 -0.244481 -0.3427898 -0.2622182 -0.2554737 0.052330565 -0.5422123 -0.018183546 0.10477834 0.032463007 -0.35893124 0.41778505 -0.26542428 -0.68069625 -0.13195638 0.14341044 -0.4252146 0.17774074 0.0936091 -0.5387253 -0.5011651 0.4135561 -0.07116465 0.079005316 -0.18213816 0.712362 -0.20027268 -0.14529496 0.17080656 -0.31058022 -0.047978785 -0.048814375 -0.46417353 -0.45097747 0.24287839 -0.04522865 0.45341152 -0.20007251 -0.2206401 -0.2071655 0.09103962 -0.14780964 0.53768915 -0.12014697 -0.7319466 0.7150999 0.3291585 0.17711368 0.17845897 -0.3456595 0.27245504
tomato -0.49256453 -0.28489652 -0.0013544323 -0.085795656 0.07913528 -0.27001798 -0.26582408 -0.23830463 0.2032501 -0.18829824 -0.78463984 0.36576238 0.75667125 0.54780674 0.43895885 0.5899575 -0.15611254 -0.6831759 0.08660082 -0.12171376 -0.12685229 0.24160199 -0.3208019 0.32511622 0.29776734 -0.53176475 -0.30760768 0.10676504 -0.63407385 0.26637653 -0.48220494 0.19477288 -0.23422249 -0.13754731 0.49571618 -0.6843701 -0.0864111 -0.6212322 0.25791556 0.20566782 0.11233413 -0.13542324 0.2442549 -0.07161738 -0.37554806 -0.16683576 -0.022581385 0.41624993 0.67327255 0.14253911 0.15512356 0.33302993 0.24017519 -0.03443429 -0.04849427 -0.8637543 -0.4701784 0.46255928 0.26634973 -0.6605248 0.41298315 -0.7749951 0.22227274 0.4158424 0.2385098 0.005553222 0.07772607 0.15532608 0.004722538 -0.27339298 -0.5850687 -0.4295365 0.08835843 -0.05886463 0.12715729 -0.42946988 -0.033142284 0.48327646 -0.38888964 -0.6855081 0.051061563 0.28493026 -0.27612904 0.6891389 0.07092506 0.53050166 -0.36548898 -0.7358794 0.58029526 -0.23579559 0.019190658 0.52468765 -0.102782585 -0.040431853 1.0472034 0.37577543 0.056550294 0.28394094 0.2608831 -0.07362819
http://www.co-ode.org/ontologies/pizza/pizza.owl#isToppingOf -0.61617744 -0.40316847 -0.01931141 -0.08316039 -0.73191744 0.26525852 -0.8059522 0.026463063 -0.3748161 -0.40280825 -0.4079174 0.5837354 0.43618488 0.75962937 -0.10532618 0.13900556 -0.06356372 -0.15443854 0.103288986 0.40997195 -0.40349895 -0.2916018 0.14506504 0.41725162 -0.12914869 0.5039635 -0.08172456 -0.06625139 -0.07690946 -0.19642158 0.3893902 0.31719643 -0.54365057 0.7405412 0.15156558 0.26744875 -0.0013008224 -0.06807195 -0.34926242 -0.26919153 0.2895421 -0.014939891 0.2735136 -0.44476512 -0.65740263 -0.15654583 -0.50387365 -0.12687795 0.53157765 0.15554035 0.16605249 -0.4274384 -0.42028522 0.21289176 0.062979914 -0.3401635 0.2746487 0.29012635 -0.21962443 -0.28049845 0.033683907 0.10302978 -0.56936705 -0.56656456 0.64927673 -0.17022148 0.37844533 0.34066263 -0.18209486 -0.6521339 0.4377866 -0.13665578 -0.18958476 -0.24536204 0.5631238 0.07142705 0.037429724 -0.056927167 0.366409 0.020636259 0.28166032 -0.39650616 -0.86292523 0.41994163 -0.1845098 0.9331847 -0.033711784 -0.4833198 0.60612303 -0.26802325 -0.19009167 0.5784088 -0.19552638 -0.1412924 0.45363444 0.101395264 0.57794875 -0.28278404 -0.67793304 0.26784417
http://www.w3.org/2004/02/skos/core#prefLabel -0.14561138 -0.07510424 0.13036555 0.011318394 -0.3497971 -0.05988491 0.07077829 0.24066061 -0.292113 0.08496666 -0.33506587 0.41238752 -0.11348525 0.14564191 0.19964714 0.32854664 -0.0141344 -0.13045071 -0.14328912 0.00350778 -0.4897707 -0.19393973 0.19320996 0.6166648 -0.31200168 0.12812196 0.05115379 -0.046296198 -0.036952507 -0.27013373 0.056921456 0.20273931 -0.018544804 0.6577825 0.087039985 0.31159168 -0.049402848 -0.28705868 0.11440035 0.06985389 0.021705862 0.0649129 0.025027862 -0.2564567 -0.05757988 -0.35535964 -0.07733473 0.41949648 0.22891556 -0.041822553 0.029867567 0.1377312 -0.14732333 0.26074743 -0.15422533 -0.15987243 -0.5825455 -0.08331925 -0.3315872 -0.39453375 0.3338234 0.078404315 -0.7047569 -0.1284815 0.33656186 0.045097385 0.15751942 0.046403285 -0.042146575 -0.65059984 0.39984083 -0.1637043 -0.21478948 -0.1823739 0.5244098 -0.21481608 -0.017978033 -0.05616703 -0.28097835 -0.11757444 -0.049824573 0.050875634 -0.38686988 0.55466276 -0.23996642 0.42086348 -0.057797182 -0.50805295 0.068979576 -0.01917466 -0.17046851 0.44360864 0.023190843 -0.038935997 0.09595229 -0.25136673 0.63169986 0.1910288 -0.6782627 -0.39822027
mozzarellatopping -0.32155222 0.22495559 -0.15466847 0.16955902 -0.10001778 -0.31677383 -0.4839498 -0.02541826 -0.27397177 -0.0012969421 -0.6253963 0.29126096 0.16064608 0.3074259 0.19522108 -0.10691208 -0.24980763 -0.74017423 0.08882225 -0.03615449 -0.46897262 -0.031000813 0.099066064 0.552375 0.13916466 0.073757865 -0.16984737 0.26430234 -0.25748816 -0.14455262 -0.4129583 0.23759374 -0.111455515 0.14950952 0.6393877 -0.5855145 0.21484213 -0.2902027 0.08856683 0.4004653 -0.13377276 -0.16262428 0.25879455 0.37493828 -0.4682556 0.028188579 -0.34713712 0.22617318 0.6144186 -0.14270452 0.15544206 0.2472469 0.37543377 -0.15702708 0.06908031 -0.29982 -0.255655 0.3423464 0.013285333 -0.22732218 0.42923728 -0.72941566 0.41847274 0.23317735 -0.0405976 0.20295723 0.037836235 -0.16655947 -0.35497466 -0.5436335 -0.21202992 -0.49124703 -0.12867814 0.4667077 0.31885695 -0.25231466 -0.0927519 -0.26925144 0.27817857 -0.8593865 -0.22435656 0.1984361 -0.32635814 0.38007763 -0.10972251 0.75656533 -0.41970548 -0.5153805 0.877869 0.15281631 0.4400558 0.30843005 0.28700876 -0.45743844 0.6939626 0.6381359 0.15053698 0.07236329 0.39385384 -0.2274525
http://www.w3.org/2000/01/rdf-schema#label -0.20273688 -0.14562826 0.00039087108 0.116717994 -0.36167955 -0.04113003 0.10172703 0.24818975 -0.23031805 0.09759498 -0.31418425 0.36549756 -0.14748341 0.15055273 0.33379892 0.21140541 0.06049837 -0.2649997 -0.09648383 -0.020544233 -0.5058894 -0.21750844 0.026729522 0.675518 -0.3011108 0.068370454 0.044809323 -0.019145217 0.03483914 -0.28467286 0.0607994 0.10974964 -0.046832517 0.665264 0.042376883 0.35352653 -0.038796775 -0.38918355 0.18866837 0.12267358 -0.09747391 0.14315473 0.03599999 -0.20831075 -0.04776057 -0.38586363 -0.09859115 0.41847548 0.27359205 0.06435828 -0.06326243 0.10372937 -0.017570373 0.26312286 -0.09894108 -0.1627687 -0.58468306 -0.099393815 -0.41470286 -0.37105507 0.2864778 0.07706656 -0.6112194 -0.11927737 0.5280957 0.03785114 0.28152078 -0.005298179 0.10862598 -0.6328223 0.35394666 -0.15360229 -0.19494443 -0.09777635 0.41776392 -0.17319049 0.004867282 -0.019305484 -0.1959899 0.118898146 0.055958282 0.08395355 -0.25483462 0.45546752 -0.2920154 0.42277542 0.11426713 -0.6121036 0.08217782 -0.058412027 -0.27027586 0.544329 -0.087303035 0.03275621 0.15389843 -0.300269 0.6122531 0.13426927 -0.5977111 -0.4888309
altlabel -0.48969173 0.25595072 -0.2513576 0.19560793 -0.06622062 0.1917425 -0.14054902 0.14109352 0.14504835 -0.177798 -0.4373529 0.7280318 -0.08140814 0.20678803 0.6841687 0.36155435 -0.56466115 -0.25235438 0.57398784 0.06989023 -0.24358179 0.36989328 -0.0006367455 0.3395655 -0.14604495 -0.38128144 -0.21594094 0.30163512 0.1884676 0.1065716 0.007178168 -0.19299886 -0.64911395 -0.013735544 0.8143037 0.23806036 0.1909661 -0.019708946 0.1393162 -0.12663814 -0.0553463 0.43382862 0.09093795 -0.31667277 -0.38405004 -0.17943132 -0.12570614 0.24165642 1.007955 0.24703953 0.31247187 -0.22798598 0.26350373 -0.10954 0.08856957 -0.58053195 -0.29716775 -0.13750714 -0.05910409 -0.31301728 0.726211 -0.34253424 -0.23156987 0.20897646 0.24760866 0.4168942 0.16094644 -0.01169917 -0.41768417 -0.7439454 0.14209203 -0.5005032 -0.13878411 -0.43898895 -0.13739938 0.08797493 -0.05622295 -0.31794235 -0.30054986 -0.23839913 0.43070188 0.32231617 -0.16873696 0.4391783 -0.1366911 0.5306944 -0.38171008 -0.7047945 0.44313735 0.046137486 -0.03807593 0.90528417 0.008825593 -0.300367 1.2567278 0.19002023 0.49819854 -0.08494872 0.47435787 0.14762837
tomatotopping -0.23620218 -0.22510785 -0.019879475 -0.09476386 0.16671218 -0.07845111 -0.28203508 -0.2357235 0.14933 -0.15202396 -0.5779691 0.036060356 0.5857748 0.6193383 0.33826774 0.48883048 -0.120812476 -0.8727273 -0.07774261 -0.24242973 -0.3753149 0.36047965 -0.07751118 0.13156186 0.23222199 -0.6671746 -0.36873102 0.114642665 -0.6159379 0.4483893 -0.5227141 0.5844587 -0.53665924 -0.14314221 0.5512195 -0.6769939 0.2091207 -0.42884454 -0.049159765 0.1844632 0.157806 0.25048947 0.14740837 -0.18586698 -0.4792136 -0.10129548 -0.03850867 0.4020651 0.9925249 0.14002024 0.30590364 0.34317228 0.23416649 -0.03275958 -0.036896165 -0.89386106 -0.22196169 0.39340535 0.120999075 -0.6282321 0.41678557 -0.8511903 0.44716156 0.7210243 0.2634313 0.40324056 -0.012002477 0.09007175 0.2857121 -0.56541693 -0.14155221 -0.33769274 -0.052169353 -0.21956056 -0.0013441663 -0.2121616 -0.07710187 0.2998218 -0.17514782 -0.6662566 0.026365867 0.16965187 0.01910654 0.6622252 0.13665438 0.6658495 -0.42217883 -0.5164236 0.98971105 -0.074210025 0.296117 0.74923843 -0.007864436 -0.16071902 1.0377045 0.37204492 0.09403098 0.25786868 0.09298547 -0.038225785
http://www.co-ode.org/ontologies/pizza/pizza.owl#PizzaTopping -0.23361656 0.19263068 0.110959984 -0.29016712 -0.40244865 0.38834986 -0.79199225 0.39134067 -0.1683293 0.023027802 -0.118912 0.65409863 0.015060899 0.692465 -0.19236945 -0.0039541344 0.41769207 -0.46409306 -0.5066787 0.3166578 -0.4010317 -0.2430525 -0.44666925 0.8383742 -0.2757121 0.13075629 -0.011094218 0.17179579 -0.1883521 -0.25813103 0.5743697 -0.2768972 0.27739826 0.5143144 0.093961924 0.15568374 -0.05966031 -0.40282968 0.6798482 0.37713033 0.05628073 0.10220669 0.7573382 -0.5620642 -0.08602988 -0.06799766 -0.03479896 0.2718434 0.17999636 0.18599313 0.37157038 -0.1431471 -0.28030685 0.24002449 0.3131616 -0.19992134 -0.3568114 0.54512405 -0.6354144 -0.42980963 -0.6067408 0.27388895 -0.5024619 -0.17363617 -0.23662236 0.058751527 -0.14361972 0.26294863 -0.1312809 -0.13329156 0.46186033 0.038530894 -0.09027339 -0.29563734 0.23706251 -0.17286801 -0.26972693 -0.07966604 -0.3806311 0.64763904 0.30920565 0.017114803 -0.37819874 0.57308966 0.061050966 0.03890515 -0.1680366 -0.14952658 -0.23792948 0.19170186 -0.44869956 0.7494151 -0.36483133 0.21005249 0.29395598 0.34954634 0.15609258 0.3696189 -0.7917104 -0.15314607
mozzarella -0.065874755 -0.037258543 -0.28455326 0.2121407 -0.05272458 0.0124773495 -0.28485256 -0.05423485 -0.14131093 -0.013103977 -0.5812126 0.022102589 0.25416243 0.5818261 0.19636235 0.025222572 -0.29566 -0.9537198 -0.09470278 -0.13654013 -0.510993 0.20030144 0.35583755 0.1690983 0.21645352 -0.30278987 -0.33200333 0.18027689 -0.51443183 -0.05039561 -0.6423948 0.4405658 -0.38708937 -0.026814822 0.802893 -0.7314618 0.50707024 -0.2605956 0.1068675 0.4744469 -0.15072519 -0.026915293 0.27761498 0.11769156 -0.5821608 -0.08272974 -0.3823237 0.27632385 0.9394654 -0.06465421 0.039036836 0.40940008 0.3665616 -0.13237628 -0.05023186 -0.5470266 0.061460435 0.2973978 -0.078836985 -0.3019393 0.5156487 -0.7758364 0.73216784 0.69114256 0.10732805 0.50259435 0.1398074 -0.38683286 -0.04123612 -0.8229565 0.078280084 -0.53940517 -0.28201583 0.27412698 0.18995932 -0.14259286 -0.31010735 -0.28810537 0.25989696 -0.8927951 -0.27147815 0.17955537 -0.04188569 0.26951888 -0.12136952 1.0282991 -0.38778883 -0.57492757 1.2273079 0.17947447 0.7859313 0.33905518 0.41126323 -0.48247546 0.7190861 0.5570126 0.2224097 -0.05594038 0.23649824 -0.3350629
pepper -0.7951692 0.22156467 0.27579993 -0.31948105 -0.12835073 0.7089574 -0.38155597 0.3665665 -0.66316736 -0.35959 -0.2517251 -0.17521913 0.5033661 1.1686467 0.012884428 0.35072362 -0.094384216 -0.8409973 -0.6358584 -0.4036869 -0.44463646 0.504147 -0.3765002 0.54177415 -0.01443238 -0.17169268 -0.6751559 -0.5821458 0.38105395 -0.4702813 -0.70536363 0.55968887 -0.38522172 -0.20544446 0.10052797 -0.6270732 0.36822706 -0.03898144 0.629387 -0.0028831586 -0.25122428 -0.9107927 -0.034352638 -0.46230283 -0.26408973 -0.06687495 0.55315495 0.58471966 1.1578286 -0.18510476 0.4764394 0.3011012 0.01379129 -0.16406728 0.646175 -0.6498056 0.48703554 0.5056041 -0.19246463 -0.9572602 -0.46243727 -0.6073181 -0.118562154 0.5050149 -0.056551795 -0.020409461 0.012229038 0.4485496 -0.7189286 -0.66899586 0.38773057 -0.37703374 0.048571143 -0.31918174 -0.22012106 0.0055617797 -0.094440654 -0.108643755 -0.2229714 -0.69610995 -0.061674688 0.70496714 -0.24571978 -0.09092379 -0.08661228 0.16023971 -0.609325 -0.69191545 0.3475147 0.1779441 0.0019355585 -0.3254034 0.8424415 -0.0028963767 0.39366767 0.009596106 0.48945242 0.3575235 -0.60990673 0.08101435
http://www.co-ode.org/ontologies/pizza/pizza.owl#Pizza 0.12901346 -0.2834557 -0.47981024 -0.16887772 -0.3879302 -0.045797803 0.19540285 0.16338608 -0.7511884 -0.27316207 -0.8641215 0.2572978 0.027806262 -0.109234974 -0.2794217 0.546186 0.23169897 -0.15230498 -0.14833368 -0.048254035 0.3554989 -0.36621615 0.4304951 0.112296775 -0.43012986 0.035447363 -0.17225654 0.29736057 -0.7047467 -0.18573967 -0.20763986 0.56963766 -0.31280833 -0.01456025 0.59646326 0.20381631 -0.90352255 0.042049635 0.090393 0.27098387 0.050533205 0.17069075 0.46615806 -0.47804037 -0.16410628 -0.21206072 -0.05348304 0.69512564 0.9092675 0.20392154 0.06420463 -0.25927365 -0.32911304 0.022008196 -0.11452241 -0.84251726 0.39716315 0.16498649 -0.29754433 0.014538097 0.18111683 -0.6165295 -0.12857655 -0.074469455 0.4005916 0.4920456 0.3715606 0.004870053 0.17281795 -0.60732406 0.57425725 0.107641764 -0.25828612 0.26361972 0.63491505 0.10207971 -0.29072124 -0.10366397 0.15744673 -0.50285554 -0.34009948 -0.68630856 -0.9533939 0.18318918 -0.5179168 0.5204726 -0.038011305 -0.7777969 0.75125116 -0.16218634 -0.14780626 0.46545544 -0.19264996 -0.65272063 0.027053945 -0.47327152 -0.5654693 -0.5384088 -0.26300454 0.008636809
hot -0.21874632 0.07888065 0.62075084 -0.18239298 -0.23068559 0.46255884 -0.18960762 0.18870112 -0.35642093 0.55538857 0.18643084 0.5104806 0.10451551 1.1116028 -0.10318642 0.4365619 0.25449315 -0.8991388 -0.08158618 0.33776712 -0.10941619 0.12612599 0.1695814 0.5299937 0.55929494 0.16587584 0.080804005 -0.36409146 0.6092214 -0.3469202 0.08377307 0.7333352 -0.13199994 0.07891651 0.25283986 -0.52518576 0.15820721 -0.16202724 0.42158395 1.1222895 -0.33521685 -0.41424918 0.24517423 -0.07237683 -0.13238631 -0.50485 0.38330492 0.23839065 0.8242667 -0.3502546 0.58344054 -0.013846866 0.5346727 -0.3060033 0.8867501 -0.6213992 0.038418915 0.1869047 -0.390306 -0.29367048 0.20960829 -0.075950176 0.55701745 0.55985636 -0.64261353 0.35307834 -0.41762286 -0.3986876 -0.32421818 0.10360878 0.2820549 0.09750403 0.036484193 -0.31688318 0.08141342 0.058187086 0.13452825 0.36466968 0.13227844 -0.6877821 -0.5534404 0.40277523 -0.03253928 -0.35418326 -0.15807424 -0.086727545 -0.5635441 -0.14251184 -0.041672822 0.02474283 0.33342522 0.41562843 0.261547 -0.120295584 1.0884626 0.4518832 0.28308913 -0.17541485 -0.62508404 -0.3638683
american 0.03166291 0.3609834 0.4338605 0.30191368 -0.09110801 0.71015847 -0.065215275 0.6337501 -0.41385853 0.59425193 -0.41915146 -0.07711685 0.6393381 1.145835 0.515142 0.3627913 0.16164303 -0.32424387 0.15267181 0.011917313 -0.34523198 0.09401869 0.08144922 0.096683964 0.6522346 0.21469828 0.07575664 -0.4596768 0.477655 -0.1494412 0.059425507 0.36816788 -0.031215196 -0.1631361 0.3535981 -0.23859325 0.41095608 -0.6615363 0.61080146 0.21823145 -0.4080808 -0.8432659 0.43679687 -0.029151183 -0.5395975 0.06266904 0.2945385 0.6265949 0.9085981 -0.016925704 0.34305543 -0.6737738 0.023475846 0.078534625 0.9623718 -0.6410627 0.19647115 0.46619257 -0.50470513 -0.06466251 0.1469425 -0.41874474 0.3210905 -0.056010555 -0.38199887 0.2493165 -0.34127003 -0.38671896 -0.06593239 -0.12982178 0.68596065 -0.4421649 -0.365609 -0.11865846 -0.15635586 -0.31946397 -0.26092687 -0.029223451 0.22110958 -0.810958 0.0833877 0.5428125 0.029974781 -0.054026555 0.105967425 -0.21703444 -0.48592755 -0.98520315 -0.1696074 0.16923903 -0.07840643 0.5565429 -0.1806227 0.08981969 0.24945058 0.38253203 0.7285232 0.19094361 0.14749813 -0.10581461
cajun -0.18265799 0.6393176 -0.048042383 -0.15324427 -0.38424167 0.69721806 -0.26475513 0.014007912 -0.25625852 -0.115762934 -0.40831673 0.4121938 -0.4318755 1.0066324 -0.2787559 -0.09824753 -0.045795064 -0.7107507 -0.606485 -0.14025514 -0.47948828 -0.12530765 0.06681771 0.9023238 0.14137459 -0.10338019 -0.46821082 -0.38618234 0.27451736 -0.2741067 -0.2078634 0.92517513 0.044081144 0.17329012 0.13698111 -0.20681599 0.79483354 -0.14249875 0.04424366 0.3294299 -0.2994291 -0.5517324 0.26027727 -0.5401144 -0.22783345 -0.62449396 -0.011758755 0.020875603 0.5016316 -0.36020774 0.06638352 -0.3677545 0.67246175 -0.2609371 0.3119378 -0.60443044 0.1736488 0.16544567 -0.08323397 -0.5226276 -0.28649676 0.16544303 0.6662585 -0.11074821 0.07225074 -0.12918936 0.15146016 -0.32489344 -0.106895074 -0.7634219 -0.34167388 -0.24079593 0.72240025 -0.40347773 0.0093290955 0.07119348 -0.18485366 0.5436747 0.18860573 0.30624425 0.03343021 0.9197645 -0.2693852 -0.12275076 -0.36800566 -0.10090051 -0.44162503 -0.7789444 0.13541998 -0.31157425 -0.6272424 -0.031144649 -0.2702093 0.109483466 0.6961936 0.856221 0.5612363 -0.2219384 -0.015633984 -0.2784248
four 0.030300172 0.60827893 0.7052724 0.34369728 -0.21030477 0.49805036 -0.36341268 0.86115205 -0.8869616 0.20484741 -0.75504524 0.18496564 0.25717467 0.40760806 0.35120595 -0.05025775 0.12864964 0.020398207 0.20024748 -0.010932308 -0.56519634 0.27151555 0.17621455 0.62040836 0.49864182 -0.15967257 -0.016176408 -0.020693248 -0.37787378 0.24996464 0.065354 0.11115441 -0.6614917 0.32765704 0.69358534 -0.43417788 0.2031819 -0.1325153 0.9564036 0.15717754 0.5471145 0.094868354 1.2935426 -0.7336185 0.106708206 -0.4952472 0.30619797 0.18013394 0.9722215 0.3750666 -0.16790664 -0.7829219 0.08183474 -0.3584253 0.25899744 0.17234766 -0.8002832 0.58186436 -0.2929727 0.011697451 0.94096535 -0.048704453 0.94584286 -0.26551974 -0.08908946 0.20547995 -0.23305202 -0.70876634 0.32552236 -0.26829746 0.20390865 -0.613158 -0.064355575 0.3239678 -0.2734837 -0.36331823 0.022782048 0.21748492 -0.053456936 -0.5452996 0.18472223 -0.2118934 0.3608821 0.41767916 0.3824278 0.10657011 -0.31093845 -0.29524678 0.48698252 0.029400587 -0.1420673 0.7054582 -0.6588234 0.65590364 0.66990745 0.5618357 0.21533088 0.08154866 -0.20018631 0.43655795
giardiniera 0.3687721 0.23240632 0.28830782 0.06498903 0.0056751706 0.47022125 -0.5933299 0.8091556 -0.05332087 0.06492334 -0.3819712 0.9106573 0.021187136 1.1544741 0.4317811 -0.4670297 0.23791324 -0.52495044 -0.4100672 0.40823394 -0.566684 -0.07669673 -0.17588633 0.77450466 0.06711068 -0.034350485 -0.070524186 -0.18577962 -0.8077025 0.6870705 0.28721094 -0.30271217 0.1704567 -0.049560722 0.25522575 -0.05161385 1.331657e-05 -0.35921833 0.7622478 0.16224028 -0.037819028 -0.4919604 0.22207136 -0.4100842 -0.03854832 0.25986478 0.25685975 0.30063587 0.6439594 0.6232724 0.39917284 -0.5302311 -0.086708255 -0.5551441 0.4661344 -0.4757106 -0.38653618 -0.12334605 0.14102322 -0.09750447 -0.11316544 -0.086481474 0.76734 -0.040290166 0.033151172 -0.32343167 -0.012569678 0.047687132 0.05551645 -0.27846965 0.11722028 0.18651609 0.29111952 -0.33906844 -0.09995354 -0.020450994 -0.46900436 0.20853029 -0.23733874 -0.5399288 0.31204966 1.0159116 0.3877414 -0.24172013 0.2000715 0.14739582 -0.86003536 -1.175392 0.8673639 0.0014360812 -0.40812996 0.7326844 -0.46312472 0.08233059 0.7319662 0.5676586 0.0041848077 0.57938683 0.19329809 -0.4209222
vegetabletopping -0.27105248 0.43440738 0.002899252 -0.5982233 -0.25110334 0.4963405 -0.5965123 0.906274 -0.08058342 -0.2410145 -0.6754064 1.2653619 0.12140093 1.5179092 0.99654424 -0.17199455 -0.10263378 0.03796521 -0.9518112 0.100946486 -0.68929476 0.085457966 0.19827309 0.88630855 -0.46879858 -0.0049756453 0.19583224 0.6535277 -0.21622823 0.4572355 0.14949647 -0.056468982 0.66411614 0.23270796 0.6341242 -0.32340473 0.2733412 -0.114609264 0.84132016 0.029792616 0.12163835 0.10830048 0.5330014 -0.089675084 0.13287717 -0.49832496 0.14776146 -0.40591398 0.40807965 -0.18884842 0.4211685 -0.47608 -0.88484246 -0.22227845 -0.090003334 -0.18936244 -0.33205286 -0.18916175 -0.38219932 -0.37975574 -0.3187064 0.20930082 -0.24592483 -0.1714233 0.11811297 -0.06042193 -0.39770892 0.032329757 0.38160673 -0.6088246 0.1615981 -0.27925488 -0.37132123 -0.15410967 0.3441976 0.47495607 -0.24023822 -0.35868767 -0.23618878 -0.23632751 0.091836266 0.34231937 0.12965679 0.17784081 0.3286164 0.35702622 -0.43200195 0.115283534 -0.079706214 0.09341749 -0.49604312 0.6972634 -0.010532262 0.25642827 0.37818027 -0.016183093 0.1867629 0.4567626 0.44426927 0.52499264
veneziana 0.14344051 0.66662824 0.33709818 0.13356237 -0.04606996 0.34977236 -0.2788079 0.71750367 -0.48322117 -0.035298172 -0.5380651 0.76357114 -0.4247111 0.927548 0.6897329 -0.057670247 -0.6962742 -0.8540974 -0.3364852 -0.27166042 -0.34183475 -0.33457467 0.74434906 0.5612683 0.37243307 0.32430467 -0.47701037 -0.051356528 0.14809936 0.28621575 0.4553197 0.39801908 0.11683172 0.12692791 0.4153882 -0.71367 0.37905613 -0.3225869 0.6905765 -0.3264913 0.40066102 -0.66541404 0.9509289 -0.21503337 0.06637321 -0.3155204 0.22147903 0.056475297 0.24110748 0.41926265 0.3608956 -0.7294118 -0.11545708 0.036242165 -0.2610392 -0.39204082 -0.47804338 0.2998061 0.091544345 0.10146147 -0.25292844 0.14292918 0.14867172 0.25790414 -0.12365772 0.25570247 -0.16607758 -0.8035601 0.25590077 -0.13798232 -0.7192102 0.0023999515 -0.23131044 0.26462203 -0.23785926 -0.017197806 -0.40190235 -0.8012646 0.72043467 -0.11462002 -0.25479838 0.7506325 0.24759798 0.2967948 0.2280675 0.42480075 -0.41655883 -0.66612333 -0.46981278 0.03621954 -0.10436969 0.41097134 -0.546897 0.028347539 0.517841 0.6902914 0.100058176 0.31249064 -0.03612335 -0.22837281
some -0.60521376 0.1638135 0.164795 0.048289083 -0.4908146 -0.54439884 -0.7772407 0.17656596 -0.55045885 -0.2596249 -0.49602017 0.11259362 0.737515 0.42761034 0.18617184 0.24485473 0.368321 -0.9870029 -0.004873639 0.21675557 -1.0250084 -0.64566565 0.45183432 0.21308605 -0.72728705 0.39019033 -0.07718991 0.12136071 0.17742302 0.38866368 -0.1442343 0.5575391 -0.6592037 1.1779099 -0.091307566 -0.4246368 0.04793616 -0.11155665 0.18710794 0.13404074 -0.3336385 -0.081892736 -0.43788645 0.2645993 -0.36450633 -0.507911 -0.2264763 -0.1216612 0.19513078 0.41190073 -0.40071437 0.5581225 -0.23654673 0.08602556 0.33855683 -0.25457296 -0.45673937 -0.03935642 -0.07724783 -0.47375005 0.9802457 -0.053816598 -0.35589308 0.03359124 0.24952582 0.21676557 0.31240335 -0.10339596 0.3811713 -0.24090894 0.69286627 -0.32538378 -0.25028622 -0.11157752 0.12856032 -0.33746344 -0.09279425 0.39913765 0.1366491 -0.104200415 0.029860605 0.32473585 -0.38495642 0.6591923 0.122983806 -0.004312208 -0.3315653 -0.36135277 0.17908953 0.28310618 -0.22037117 0.62166464 -0.17958501 -0.36368632 0.06894542 0.5231951 0.37163344 0.03272784 -0.2854979 -0.38990358
base 0.39821675 0.34442815 -0.529796 0.34095085 -0.015445765 -0.13316576 -0.33423072 0.19208044 -0.46620342 -0.49057654 -0.71015555 0.15589233 0.15308155 0.6119295 0.37576237 0.09164844 0.0027847139 -0.3034806 -0.7409213 -0.6200067 -0.31549117 0.16050863 0.7010373 -0.220621 -0.059679154 0.009061325 -0.51962906 0.8442083 -0.23956509 -0.1877119 -0.5366549 0.51004165 -0.25325343 -0.30318904 0.21607642 -0.08805018 -0.6552949 -0.07372842 -0.09967477 0.530933 0.0874653 0.2219773 0.0898334 -0.30176416 0.2363455 -0.30901858 0.07316621 0.28501996 0.86824656 -0.16407232 0.04266767 0.012499263 0.09100014 -0.013964229 -0.21894999 -0.7053397 0.019932698 -0.04225887 0.49000987 -0.12926933 0.5199411 -0.49198058 0.7078996 0.17764458 -0.4123658 0.79047227 0.32139722 -0.41390306 0.43872422 -0.61394936 0.24439016 0.116645984 0.21811485 0.15405177 0.2017758 -0.28521153 -0.45122513 -0.38673243 -0.08770193 0.13296252 0.2989313 -0.015181961 -0.22369842 0.058529593 -0.36678967 0.21562853 -0.1362867 -0.33063066 0.6068392 0.33744624 -0.31542316 0.66213834 -0.06727541 -0.5107752 0.8391152 0.2128117 -0.64167255 -0.056288693 -0.026282292 -0.84625167
http://www.co-ode.org/ontologies/pizza/pizza.owl#TomatoTopping -0.47225565 -0.4745248 0.102504574 -0.27062446 -0.39642927 -0.45592043 -0.18028557 0.01481644 -0.39938888 -0.15877444 -0.783716 0.4010058 0.27945247 0.37663963 0.10283713 0.39728853 0.06463107 -0.5878736 0.29813075 -0.022822894 0.07472025 -0.011504955 -0.21453102 0.7921631 -0.21413353 -0.04907178 -0.26535174 0.0038512754 -0.6829721 0.15730673 -0.28867954 0.071708664 -0.17958267 0.44290787 0.24949424 -0.75778323 -0.23176117 -0.4709045 0.31542784 0.30757803 0.15367207 0.0071076844 0.32678714 0.08814387 -0.72026193 0.124541774 -0.15150702 0.5847428 0.5413862 0.35797065 -0.09991286 -0.08034106 -0.13140216 -0.14911333 0.028928656 -0.6452474 -0.2527296 0.53070915 -0.033017114 -0.6540172 0.2900821 -0.7351454 -0.15923153 0.030407693 0.4905996 -0.19036515 0.12054864 0.31406 -0.17046688 -0.21236728 -0.19174896 -0.116338804 0.053162705 0.05807795 0.5785878 -0.24166052 -0.04254738 0.29079458 -0.115319006 -0.7357994 -0.080112554 -0.23943053 -0.68791264 0.7038761 0.1382976 0.6616779 -0.1651538 -0.75738007 0.45307392 -0.10068254 -0.14632381 0.56941634 -0.19465545 -0.19137642 0.52264065 0.010482294 0.16958943 0.25725517 -0.07005283 0.22562249
mushroom 0.008623336 -0.34698796 0.020007337 0.3331415 -0.076709434 -0.14109083 -0.34449887 0.98925143 -0.37805322 -0.078279115 -1.0214484 0.38736913 0.23685274 0.64870167 0.36904433 0.026233805 -0.14273006 -0.52418816 0.24261554 -0.24134742 -0.16449131 0.5258928 0.30304694 0.57928395 0.7186556 0.029078826 0.28155163 -0.2601876 -0.80382735 0.4232316 0.06417065 0.29808277 -0.18449348 0.30375755 0.67536974 -0.3895507 0.66163546 -0.5478004 0.49030995 0.45617324 -0.1179609 -0.3597034 0.6608076 -0.19884008 0.14501037 -0.57908076 -0.1977509 0.30177867 0.7683334 -0.060721513 0.096998 -0.3738466 -0.14554544 -0.3129854 0.41328412 -0.18210824 -0.21347028 0.1620865 -0.31323352 0.09280447 0.26833746 -0.3996563 0.9182197 0.20088002 0.10105102 -0.24776599 -0.2514731 -0.23654082 0.062294673 -0.284553 -0.013652836 0.015571418 0.15134451 -0.313996 0.8175675 -0.31205368 0.2686403 -0.1284454 -0.3568263 -0.566825 0.043121412 0.0089463405 0.30907568 -0.13824022 -0.07101602 0.30339065 -0.07376234 -0.71950823 0.67960393 -0.38021857 -0.14183438 0.061909433 -0.19565177 0.19028296 0.3078945 0.12609012 0.20870095 0.19264635 -0.2625146 -0.041923404
http://www.co-ode.org/ontologies/pizza/pizza.owl#hasSpiciness -0.7842057 -0.2533865 0.092238516 -0.20025627 -0.38921696 -0.29854977 -1.0319055 0.5212463 0.00036498334 -0.41341636 -0.67921203 0.17522128 0.7152729 0.29662797 -0.17517412 0.33965948 0.42098042 -0.19163218 0.2424063 0.16712469 -0.7472795 -0.37728208 -0.20698926 0.7343609 -0.515303 0.6190874 -0.17514564 0.31475556 0.2438671 0.030773452 0.6413625 0.39197728 -0.20755109 0.89441085 0.033035833 -0.16749908 0.07658469 -0.13427405 0.105343245 0.25102064 -0.2795163 -0.08865819 0.46687448 0.11488858 -0.478673 -0.19381385 0.023353636 0.35086277 0.5977149 0.6705515 -0.037868608 0.05960267 -0.48636 0.1844784 -0.20629145 -0.18790732 -0.22191559 0.59104043 -0.85963106 -0.45072114 -0.059703253 0.011587685 -0.4905205 -0.16428472 0.23544641 -0.2963759 0.24743722 0.49635494 0.409236 -0.3841008 0.45988846 -0.00695241 -0.2229203 -0.6705372 0.049159724 -0.70232385 -0.14647202 0.25487468 0.08885514 -0.1784718 -0.29949123 -0.033538003 -0.5600976 0.3718539 0.0034606506 0.002485599 -0.32252055 -0.28377697 0.31559643 -0.5004262 -0.5970736 0.5338714 -0.35034087 0.07402 0.47677845 -0.078917615 0.594509 0.3018736 -0.4391843 -0.4349082
capricciosa -0.1045731 0.750836 0.33379525 -0.06344979 -0.27032402 0.63025874 -0.6739772 1.2617236 -0.47528344 -0.21054156 -0.31450474 0.7175418 -0.1966591 0.6004169 0.4387148 -0.52639836 -0.23572503 -0.72366285 -0.062374238 0.08077293 -0.5924788 -0.24680245 0.53149146 0.4394833 0.45273328 0.2643551 -0.3819241 0.098940775 0.010871564 0.07882733 0.14067197 0.15963994 0.07489263 0.20370886 -0.0013501956 -0.5732524 0.25082442 -0.02710057 0.4171978 0.29704645 0.136145 -0.5665995 0.36426997 -0.5593286 -0.11582552 -0.5438097 -0.03477252 0.40732047 1.1268365 -0.119970515 0.41279048 -0.45592365 -0.27053046 -0.7876542 0.26249096 -0.3331457 -0.26839414 0.20553106 0.26285967 0.13725533 -0.0035899114 0.30180964 0.3799767 -0.07940275 0.36449796 0.24034302 0.10654904 -0.24131165 0.01834135 -0.30112016 -0.2310655 -0.48228264 0.54431456 -0.28127497 -0.15437022 -0.11181609 0.21859871 -0.38920832 0.32130724 -0.3251085 0.42360297 0.58829415 0.060455848 0.3097702 -0.14116831 -0.10851013 -0.40165427 -1.402547 -0.026312461 0.5071265 -0.17551751 0.5697297 -0.6226261 -0.07562552 0.26034752 0.44442973 -0.022585638 0.36128426 0.051579177 0.11846531
siciliana -0.55276066 0.84367913 -0.06143264 -0.23168948 -0.17918363 0.1196476 -0.29600444 1.2518352 -0.4507199 0.064732544 -0.66112465 0.8360783 -0.18238437 0.5821259 0.55714774 -0.6051812 -0.41809624 -0.4371478 -0.24846001 0.019671367 -0.51368016 0.062489554 1.125374 0.001035156 0.34614336 -0.009487823 -0.36802155 0.18852614 -0.11374777 -0.12417476 -0.28352138 -0.04895705 0.3038836 0.24553105 0.11980614 -0.49966875 0.4954732 -0.4361961 0.33978552 0.08679156 0.19125675 -0.19018069 0.59600866 -0.5719411 -0.5741138 -0.7527862 -0.25890082 -0.036169764 1.3907721 -0.31508455 0.36468658 -0.6757506 -0.29083806 -0.49467343 -0.26783264 -0.7240293 0.014810574 0.30051744 0.1717395 0.109492116 0.016597439 0.34691155 0.31250837 -0.50110745 0.31472728 -0.0633111 -0.15742587 -0.03494705 0.22919737 -0.045971405 -0.14461866 -0.073038615 0.10690867 -0.4608186 -0.01914306 -0.49078158 0.41656604 -0.20239238 0.30549198 -0.2780755 0.5262958 0.36868238 -0.13551041 0.58882636 0.036707602 0.07057526 0.06609838 -0.51201636 -0.51941687 0.51160735 -0.30915985 0.46513456 -0.36769184 -0.18277791 0.22267692 0.19032162 0.18690464 0.45747083 0.39258233 -0.10717099
astra -0.39295635 0.9506799 -0.38515115 -0.34035808 -0.18679151 0.7802394 -0.22472373 1.170276 -0.75715804 0.055118743 -0.92841893 0.7345856 -0.09446132 1.0012479 -0.026793731 0.25999287 -0.2450242 -0.95332617 -0.35864165 0.1530793 -0.75315225 -0.40592903 0.5673098 -0.007580336 -0.06789829 -0.22571808 -0.49378252 -0.38729703 0.43723825 -0.48056287 -0.4290707 0.82573175 0.16946793 -0.077041544 -0.1742862 -0.7733241 0.7393582 -0.51918364 0.8001647 0.09954276 -0.35733488 -0.27093995 0.51582015 -0.7121206 -0.65014684 -1.0023603 -0.03883356 0.11450986 0.75584006 -0.37661353 -0.0072697415 -0.7407695 0.698965 0.29257098 -0.15716773 -0.7887959 0.3652657 0.0977857 -0.6996941 -0.48823813 -0.70022446 -0.8014711 0.2234782 -0.19122021 0.36479005 0.20069222 -0.062405642 0.033888258 -0.06777127 -0.06944052 -0.08378028 0.44025153 0.29415622 0.46993318 -0.42141876 -0.70528716 0.17280899 0.46639192 -0.2193113 -0.14862591 0.44281098 0.2522034 -0.23226376 0.18120643 -0.1687635 0.18246476 -0.4164297 -0.14693773 0.018959953 0.6426114 -0.3126887 -0.04862814 -0.4132624 -0.31917605 1.1027408 0.45722526 0.30690712 -0.2207749 0.29528728 -0.44668865
pollo -0.7081135 0.927974 -0.26953012 -0.39739826 -0.58152384 0.36386937 -0.6655935 0.8515802 -0.2036109 -0.067762256 -0.98835605 0.47316 -0.24289864 1.3441573 -0.07718678 0.30502912 -0.58615303 -0.8185304 -0.32750738 -0.2591943 -0.14970683 0.39693022 0.6725073 -0.113232315 0.23788378 0.13099024 -0.5080413 -0.37936935 0.18283336 -0.3414109 -0.43005225 0.8176826 0.18571165 0.19490957 0.47696054 0.41626742 0.7021555 -0.46286106 0.5523924 -0.10786229 -0.07294732 0.13893595 -0.072245315 -0.30238846 -0.71476763 -0.5351156 -0.115567505 0.5193569 0.82483023 -0.347113 0.13734356 -0.26240176 0.5599379 0.50217503 -0.2145226 -0.7986114 0.32072398 -0.2053676 -0.6213106 -0.782759 -0.31884104 -0.33018354 0.1804034 -0.19592494 0.2321977 0.37938035 -0.22002777 -0.3180348 0.050923772 0.17458612 -0.0037693288 -0.19255005 0.09239787 -0.05185995 -0.49945068 -0.28688216 -0.17466341 0.41077045 -0.1471322 -0.14671448 0.030849235 -0.006850452 -0.70305485 0.39259028 -0.37429368 0.16059467 -0.4456759 -0.8087486 -0.6606433 0.4259072 -0.32965204 0.13905776 0.02526812 -0.5389047 0.7017491 0.26811 0.21429732 -0.2652899 0.2757381 -0.514177
ad -0.2983952 0.69656533 -0.2669699 -0.4689778 -0.48483133 0.42082763 -0.06450966 1.0328722 -0.53335077 0.2526703 -0.82072157 0.7027953 -0.08531926 0.9744609 0.27076095 0.63451195 -0.27001327 -0.47654426 0.09077681 -0.3976774 -0.47320768 0.11023061 0.7419728 0.0057188123 0.20432688 -0.2646196 -0.2529378 -0.06312581 0.018393239 -0.46874642 -0.63152677 0.84605306 0.38844076 -0.06974225 -0.13446791 -0.5630169 0.7532978 -0.68622315 0.7982091 -0.17639497 -0.43851405 -0.3825084 0.50914097 -0.64819825 -0.55665314 -0.4958578 -0.34934852 -0.038238443 0.9484238 -0.38198718 0.09222283 -0.40060723 0.6181491 -0.1517615 -0.06576327 -0.6443789 0.1053295 -0.41666886 -0.2522309 -0.82895994 -0.31146675 -0.4173335 0.03125052 0.34077266 0.17475782 0.6760245 -0.36358228 0.3660146 -0.4852792 0.24816532 0.43016806 -0.056901205 0.4007874 -0.15182129 -0.60996836 -0.037962385 -0.4624257 0.53657347 0.28930554 -0.0056766816 -0.15140778 0.56361425 -0.74565697 0.046713684 -0.3478046 0.27848 -0.03920344 -0.26906157 -0.032655086 0.008220536 -0.6636379 0.5965007 -0.10300508 -0.5825014 0.8782801 0.784445 0.014057479 0.23710497 -0.28152198 -0.8422278
seasons -0.21635252 0.38422617 0.16929449 -0.14939855 -0.019308256 0.30379805 -0.3248551 1.1924642 -0.50699276 0.35949618 -0.48541576 0.6780037 0.25679252 0.5265466 0.65239763 -0.3859678 0.28022048 -0.6746344 0.47994933 -0.19535932 -0.39046234 -0.010565443 0.5094716 0.5526558 0.7629342 0.30927882 0.1863897 0.17602137 -0.5347839 0.48585698 0.1353248 -0.021382086 0.10253264 0.66140234 0.9344707 -0.45979095 0.53736246 -0.45834044 0.8744173 0.5733033 -0.42095155 -0.52055794 0.81395626 -0.26142305 -0.38388613 -0.15268242 -0.16954635 0.17842537 1.1452214 0.060522426 0.28841707 -0.7473878 -0.19395524 -0.4757281 0.74892515 -0.02390776 0.03505773 0.17757702 -0.1450768 0.37309104 0.34372643 0.29859185 0.7928138 0.31416598 -0.18975534 0.27556577 -0.392886 -0.92798686 0.29866537 0.104300335 0.32085657 -0.48822388 -0.29478732 0.18825366 0.20464705 -0.31564286 -0.23357712 -0.4462889 -0.10005109 -0.21870087 0.27297848 -0.032451257 0.16366655 0.3201359 -0.017640503 0.07345992 -0.63756126 -1.0882477 -0.028343327 0.2763361 -0.35308245 1.0216182 -0.94678444 -0.3172548 0.39157665 0.58643806 0.16280086 0.02447375 -0.30512044 0.2251386
olivetopping -0.32886565 -0.25935653 -0.14117883 0.15074374 -0.0076624393 -0.23239806 -0.58664805 0.42807725 -0.6320257 -0.563095 -0.90464884 0.23394403 0.29105374 0.44849932 0.39324358 -0.4410011 -0.24049056 -0.79895824 0.18107177 -0.5295286 -0.26325497 0.40080404 0.34950766 0.43809777 0.4158353 0.040428504 -0.067822374 0.39113182 -0.46039575 0.2094909 0.030118482 0.07901511 -0.29244512 0.36889082 0.64621913 -0.76295495 0.47381824 -0.32578325 0.17488869 0.088952206 -0.07594152 -0.43101865 0.73418224 -0.16252732 -0.30686054 -0.39495987 -0.39508745 0.24185929 0.79127526 0.26905322 0.15760472 -0.14849417 -0.32928234 -0.5584303 -0.07568921 -0.6412792 -0.3417951 -0.04120142 -0.021884616 -0.20588197 0.5935533 -0.43214527 0.423026 0.3479728 0.28337345 0.023593035 0.06803522 -0.18678118 -0.1342955 -0.37518117 -0.5334332 -0.1785316 -0.024631426 -0.14235024 0.6339647 -0.44170147 -0.037556343 -0.2040935 0.110215545 -0.45157513 0.20788957 -0.06379437 -0.13493378 0.3763479 -0.16681753 0.45487013 -0.28093505 -0.7960513 0.44333252 0.063417576 0.12375474 0.18762353 0.0792584 -0.1905001 0.15832564 0.15703066 0.21940377 0.42499214 0.042887405 -0.4799748
http://www.co-ode.org/ontologies/pizza/pizza.owl#MozzarellaTopping -0.14074428 -0.119913995 0.13753328 0.030688481 -0.4691664 -0.39697835 -0.2083679 0.020045502 -0.61523396 0.082785696 -0.7881027 0.25699174 0.12528132 0.38584736 0.13765489 -0.044929896 -0.16950433 -0.60410565 0.17479867 -0.20710596 -0.21480452 -0.10013607 0.10446424 0.76808 -0.023518972 0.41706103 -0.39569816 0.0924443 -0.39755693 -0.3685723 -0.3618193 0.29863155 -0.07293317 0.44877553 0.22160292 -0.6371592 -0.13666278 -0.508279 0.08755046 0.22215949 0.004945743 -0.16390352 0.22944103 0.43494675 -0.7478718 0.302524 -0.18429816 0.45207068 0.44616216 0.027553547 -0.3422407 -0.06499208 0.0029004712 -0.15623645 0.1484823 -0.4310609 -0.30736694 0.5076879 -0.0031659731 -0.5390132 0.2736478 -0.6639235 -0.32793197 -0.26971018 0.36363447 -0.260004 0.3325553 -0.01702494 -0.34631062 -0.571002 -0.14050028 -0.3633807 -0.025801998 0.57514125 0.6575184 -0.15750414 -0.28642637 -0.06050781 0.2370873 -0.87925833 -0.24193482 -0.20105165 -0.55877495 0.5943598 -0.054915287 0.8795138 -0.08464635 -0.8818337 0.5595368 -0.09007122 0.09813194 0.2394591 0.03321799 -0.46339235 0.38631025 0.14874348 0.31778073 0.054610614 -0.086624615 0.2296245
cheese 0.39074853 0.34472924 -0.2710022 -0.2253774 -1.000002 0.42505243 -0.43856817 0.5342585 -0.06986898 0.06603178 -0.9249194 0.38097808 0.84425884 0.3883673 0.17271288 0.2103149 0.05434648 -0.3924112 0.12312555 0.3489213 -0.14126103 0.75669336 0.36748138 0.061986435 -0.1594754 0.09496685 -0.35632688 0.17496899 -0.0040317285 -0.17787492 0.034062564 -0.12185546 -0.08612854 0.27113354 0.2460542 -0.18367957 0.31337315 -0.17523523 0.6497988 1.2665812 0.46458346 -0.57656145 1.1582433 -0.4741157 -0.39893016 -0.04050282 0.038579732 -0.5639165 0.12133491 0.0964854 0.073724315 0.32720527 -0.7757764 -0.4167152 -0.06877277 -0.408869 -0.40188605 0.46077257 -0.3116082 0.083863206 0.47439128 0.3971743 -0.20329528 0.16177337 -0.2980737 0.3927414 -0.5690334 -0.74735403 0.488993 -0.7040004 -0.07960316 0.1688232 -0.5660973 0.22829668 0.7304866 -0.16136779 -0.75817704 -0.34921765 -0.10123115 -0.40591562 0.006446401 -0.57675385 -0.060195867 -0.11517981 0.10617156 0.73424757 -0.079819456 -0.39155313 -0.3568999 0.11637918 -0.4941432 0.35298178 0.39049536 0.47390622 0.23405166 -0.0010826221 0.09440459 -0.4619932 -0.34468618 -0.33311623
soho 0.051665533 0.74719125 -0.20796227 -0.04825615 -0.2213769 0.28165585 -0.50443166 0.85162896 -0.5821492 -0.02979871 -1.116149 1.0240426 0.114028156 0.9360447 0.46196985 -0.3302014 -0.0021305194 -0.33936244 -0.290612 -0.06868577 -0.15832496 0.12887122 1.0305129 0.19697034 0.12943259 0.031586356 -0.25238693 0.17162597 -0.2989776 0.225083 0.29602966 -0.16403799 0.28913 0.0848933 0.4433666 -0.0608038 0.4591867 -0.43677172 0.43918887 0.02686375 -0.08513846 -0.44669655 0.6838496 -0.33616203 -0.5012417 -0.07557995 -0.032051142 -0.40348366 0.4851409 0.13674419 0.23038457 -0.60065377 -0.13876288 -0.24751322 -0.691673 -0.96394414 -0.19435795 -0.31028435 -0.2436818 -0.032593735 0.44214743 -0.18577817 0.1135495 -0.1848041 -0.028405877 -0.04441704 -0.5279918 -0.5103851 0.14804904 -0.34131342 -0.25213355 0.39262095 -0.29209927 -0.15263624 -0.19901407 -0.6061208 -0.44508427 0.09180839 0.23141669 -0.5805353 0.4302889 0.5484534 -0.26360598 0.56538945 0.11924328 0.039647125 -0.6943937 -0.16571634 -0.080983706 0.7554519 -0.5470859 0.26604262 -0.077156544 -0.36117318 0.45498297 0.24732521 0.3372821 0.36790144 0.6679273 -0.5595602
fiorentina -0.04726742 0.4986034 -0.38746953 -0.19262154 -0.17527924 0.28812963 -0.38898408 1.0857173 -0.41827866 -0.07426768 -1.105608 0.6977689 0.043604966 0.7395375 0.783261 -0.3366138 -0.13939285 -0.37213683 -0.22794399 0.16561785 -0.24938796 0.13390495 1.081083 0.23502223 0.26573437 -0.28768688 -0.17970712 0.12366586 -0.48920768 -0.110057764 -0.051598072 -0.13887598 0.27032083 0.0631248 0.25597933 -0.08452505 0.42944923 -0.5735993 0.74281895 0.18698086 0.006705277 -0.6604118 0.67407376 -0.33780354 -0.6416254 0.027299814 -0.075454846 -0.41621125 0.41543996 0.23319496 0.3473277 -0.3071696 -0.20084399 -0.39266762 -0.8312738 -0.9895522 -0.28859532 -0.10599766 -0.12985945 0.0566078 -0.07111402 -0.10172676 0.20514758 -0.21301264 0.24871893 -0.013707616 -0.50518996 -0.29186833 0.21173266 -0.45322195 -0.3457945 0.37342426 -0.32102153 -0.095367536 -0.16003448 -0.3413755 -0.40517184 6.845384e-05 0.2947878 -0.47466034 0.49277157 0.61833525 -0.15153281 0.43827942 -0.0009924212 0.26265377 -0.47963578 -0.029487219 -0.017737124 0.6064515 -0.33999878 0.36720696 -0.30192852 -0.2544684 0.59034467 -0.034598064 0.42697713 0.63930076 0.65344447 -0.79104817
napoletana -0.14887966 0.48832068 0.28724733 -0.001372173 0.12643433 0.46203446 -0.10236073 1.1162829 -0.6629491 -0.0498374 -0.5229345 0.408269 -0.18456174 0.47039255 0.737085 -0.28924784 -0.37105843 -0.6369149 0.1556163 -0.29527548 -0.21913463 -0.22813034 0.5712817 0.46433017 0.55168104 0.09770335 -0.25305557 0.14291367 -0.36182222 0.0060150055 -0.216424 0.4151129 -0.024386033 0.334589 0.27572426 -0.7419723 0.46053457 -0.34603348 0.5203019 0.27036595 0.13481933 -0.6696279 0.92998374 -0.26602685 -0.21593377 -0.24169634 0.18394005 0.13373351 0.7672969 0.20412953 0.3915558 -0.6238398 0.05863894 -0.44655934 -0.32519546 -0.5346242 -0.3299754 0.2625982 0.19701412 0.3523131 0.35013294 0.22629905 0.53050935 -0.057389382 0.062329944 0.21029527 -0.20571212 -0.7736585 0.1220109 -0.22906926 -0.24535115 -0.39324883 -0.22390954 0.35350943 -0.26508605 -0.2838115 -0.3895437 -0.44323152 0.49994618 -0.41016158 0.36106732 0.19261348 -0.17671072 0.42999494 0.42366573 0.17543416 -0.27150124 -0.90326816 -0.28750592 0.4052551 -0.09154895 0.6620499 -0.8515442 0.07641032 0.3723872 0.035492655 0.1432161 0.34669814 0.2662203 -0.048169497
country -0.20345554 -0.19440864 0.26237768 0.43610853 0.013470644 0.24195002 -0.31638172 0.3824355 0.15825388 -0.7637952 -0.10117006 -0.03981383 0.25695872 1.1422229 0.89043903 0.6516945 -0.55721134 -0.45236698 0.28211918 0.10470456 -0.1627448 -0.07472582 0.44505864 0.100047894 0.2536742 -0.35963523 -0.46853262 -0.075207055 0.120818466 -0.32977647 -0.08637171 0.18748419 -0.3594679 -0.15823983 0.07634105 -0.36678004 0.556557 -0.031070584 0.5258353 0.12952706 -0.23097181 -0.10757335 0.24874794 0.25349474 -0.06065929 -0.3844901 0.13719797 0.5386645 0.8601946 0.5875495 0.06806201 -0.4061285 0.30006656 0.1658661 -0.4524852 -0.24080765 0.26586157 0.545675 -0.12522621 -0.19705011 0.749886 -0.20644669 0.52370447 0.5029507 0.015383568 0.46969652 0.24702543 -0.7283047 -0.34212527 -0.051960412 0.6753912 -0.054827336 -0.39339164 0.11906774 -0.14747366 0.012610065 -0.6580637 -0.9461899 0.53132415 -0.32951567 -0.25852197 -0.025397854 -0.51874596 0.20754126 -0.06891234 0.40694275 -0.24369594 -0.60388094 0.37397882 0.29864925 0.59421587 0.22491835 -0.2334828 0.13532965 0.6412878 -0.046381876 0.39345887 -0.047317464 0.54467523 -0.933256
named -0.74875486 -0.726672 -0.4917051 -0.11983756 -0.4806549 -0.07395205 -0.060130063 0.24118923 -0.43278897 -0.18818258 -0.8947055 0.4312162 0.6100538 0.38075662 0.21680231 0.7803682 -0.1623584 -0.4311554 -0.1806613 -0.7259479 0.34407666 0.32037678 0.5284339 0.30810001 -0.050814074 -0.30596146 -0.26031333 0.41783658 -0.63276917 0.5253243 -0.79299426 0.67140514 -0.7266933 -0.25997287 0.76959944 -0.55558664 -0.5817358 -0.13196276 -0.12306998 0.61922485 -0.035739932 0.030998977 0.3776583 -0.13036738 -0.17396669 -0.1209368 0.255203 0.43153757 0.70985526 0.65821093 -0.017382307 0.33459276 -0.0040595843 0.27474713 0.033888992 -0.69271094 0.5353226 -0.3322577 -0.20137796 0.4231608 0.4526446 -0.44896317 0.057758193 0.48139685 0.09774425 -0.0035266634 0.5278416 -0.28264308 -0.226869 -1.0207452 0.69619745 -0.48331386 -0.14014538 -0.30551845 -0.40416634 -0.08325779 -0.260449 -0.16078454 -0.044308357 -0.63224596 0.17024118 0.3523248 -0.45816177 0.5965098 -0.015810879 0.66965586 0.08711853 -0.122023396 0.7969404 0.08804667 0.54326814 0.9423226 -0.22070713 -0.5551357 0.7773266 0.06430935 0.43038628 -0.10127719 0.5061668 0.6474094
mild -0.52707726 0.2812418 0.17338821 -0.4994737 -0.68451154 0.2673249 -0.9741861 1.2588049 0.46696272 -0.8289895 -0.4442479 0.09249095 0.4685102 1.1691548 0.23344502 0.12809947 0.7464291 -0.76479155 -0.3161431 0.60713726 -0.91587234 -0.20859307 0.009292725 0.214009 0.21407361 -0.42486125 -0.030229475 0.45491925 -0.3954538 -0.3434696 0.28897762 -0.7912512 0.30615422 0.20407732 -0.079653874 -0.20432065 0.5769277 0.07329891 0.8614759 0.7640374 0.10938345 0.007337811 0.5062166 0.057466026 -0.22626634 -0.13347267 0.032181375 0.012755232 0.23693055 -0.0064063156 0.21485277 0.31106353 -0.57552165 -0.111512795 -0.12832336 -0.24255191 -0.53021765 0.74437255 -0.3239642 -0.26828617 -0.12130527 0.08610265 0.09901734 0.4620112 0.07336424 0.16156854 -0.42755032 0.48666728 0.5520197 0.13059768 0.22860408 -0.1291714 -0.4857677 0.09575875 0.11164904 -0.5017044 -0.091772996 0.18497835 -0.43985057 -0.22409253 0.26751494 0.22904594 0.30669802 0.3089879 0.14929368 -0.057591762 -0.43488225 0.2910641 -0.02641422 -0.08953423 -0.13662586 0.91107893 -0.45961213 0.14908485 0.7997778 0.43166816 -0.12201824 0.59939307 -0.32075638 -0.31449378
vegetarian -0.3554059 0.9992236 -0.47231346 -0.041875597 -0.35970005 0.6851599 -0.32188886 0.32543397 -0.7164101 0.14342812 0.049973417 0.8651689 -0.5389386 0.3150651 -0.4655619 -0.09789828 0.22543366 -1.1290319 -0.39014688 -0.52242434 -0.3895134 0.7576409 0.7251269 0.0437825 0.28922823 -0.19504842 -0.4079301 -0.3556029 -0.5901797 -0.15222308 -0.18453689 0.14204696 -0.12267489 0.7297124 0.4547053 -0.61334187 0.17445241 -0.2621179 0.069753736 0.25341102 0.11837326 0.13381007 0.7327128 -0.6769637 -0.32523954 -0.0067193406 -0.120264076 0.11336738 0.50730056 0.45784158 -0.2216339 -0.5295225 -0.4942267 -0.24728462 0.19140586 0.1489405 0.14107703 0.66845685 -0.42573196 -0.0112117855 -0.0063203983 0.23365168 0.5241955 0.54137 -0.25488207 -0.13590553 -0.16313678 -0.15195182 0.46272668 -0.793642 0.26865646 0.6289675 0.2714334 -0.6843618 0.854576 -0.058064137 -0.76994336 -0.61163974 0.009727727 0.22338979 -0.17148528 0.48172572 -0.3147047 -0.153073 -0.653421 0.5905456 -0.5949788 0.21407138 0.3936108 0.3872878 -0.48475266 -0.34900898 0.32691526 0.4293332 0.22171266 -0.3273186 0.27179778 -0.28288683 0.25026265 0.06435453
prince 0.55737203 0.40498444 0.2030895 -0.050326727 -0.84785736 0.29166222 -0.08576532 0.7469704 -0.25056237 0.34832588 -0.93504363 0.52755815 0.24135436 1.3280063 0.08919744 -0.20969558 0.06859125 -0.7316846 -0.1312675 0.07994834 0.0933137 0.34088895 -0.057399236 -0.05620447 -0.36255345 -0.19749476 0.24319838 -0.62198097 -0.36592218 0.33220333 0.5543911 0.032841094 0.33705476 0.27606153 0.07978374 0.42424947 -0.0863338 -0.7480432 0.6514919 0.6173536 -0.097209424 -0.6780325 0.86287314 0.3433833 -0.6277665 0.026002696 0.16008896 -0.23735335 0.19426419 -0.21532245 0.12083672 -0.11435214 0.4517829 0.23414728 -0.07987792 -1.0094808 -0.34747332 0.34498373 -0.5495439 0.10102636 0.29030222 -0.8604714 0.48610586 -0.09966202 -0.7051684 0.17729978 -0.5679849 -0.4347337 0.09793578 -0.60960543 0.32702345 0.25517395 0.12903757 -0.39022353 -0.34732115 0.09461674 -0.77755576 0.30918762 -0.035600703 -0.39282516 0.46747535 0.16977517 -0.33650848 0.25114927 -0.18795191 -0.07346516 -0.75205404 -0.37861684 0.6971988 -0.027518185 -0.4124803 0.8071321 -0.5060707 -0.4244034 1.0043043 0.022125091 0.7178071 0.08170077 0.519358 -0.837335
carlo 0.62532806 0.25638217 -0.5672555 0.26847446 -0.4719693 0.73638284 -0.48760805 0.5246934 -0.31855905 0.70980585 -0.87506366 1.0820487 0.59698343 1.410427 0.59536886 0.19612524 -0.09417128 -0.5546361 -0.012300988 -0.053830422 -0.2756021 0.27516517 0.67590684 0.52268285 0.16083357 -0.36160374 0.054707903 -0.4779816 -0.60167503 -0.47569486 0.22214536 0.5580796 0.2701183 0.17681105 -0.14957695 0.2648458 -0.42797986 -0.052259184 1.0538635 0.97938526 -0.2092016 -0.8757096 0.4704243 0.30353147 -0.78154284 0.49774912 -0.23414491 -0.47450262 0.11708826 0.38306487 0.215827 -0.42521027 0.30260497 0.029639563 0.041382127 -0.797176 -0.5986606 0.030625798 -0.31869495 -0.40347585 -0.041084416 -0.6631396 0.79891485 -0.463876 -0.65896314 0.32357278 -0.6061014 -0.6418652 -0.16206409 -0.5810031 0.15904027 0.2998367 -0.28912523 0.10016064 -0.09605762 -0.05680304 -0.6198009 0.56189483 0.049670346 -0.4577662 0.15527828 0.71117777 0.16508764 -0.37254333 -0.107365064 0.41708624 -0.869858 -0.11870829 0.5524818 0.35655054 -0.85041505 0.501424 -0.42934766 -0.011038727 0.8956821 0.110984534 0.5514585 0.19909032 0.42794973 -0.25961274
SubClassOf -0.41338652 0.561354 -0.0381826 0.4549603 -0.19170883 -0.2566421 -0.07944241 0.24036889 -0.33617675 -0.27994537 -0.69030195 0.20220324 0.07173771 0.37934256 0.3934214 0.23652032 0.4600513 -0.57078123 0.43053794 0.10855382 -0.845601 -0.5627538 0.28466216 0.87838626 -0.30309835 0.3895121 -0.070059754 -0.45695755 0.04322126 -0.7101735 0.29149452 0.04144255 -0.19628686 0.87599236 0.11685314 0.52334017 -0.21096554 -0.17788032 -0.30866897 -0.0482933 0.40475667 -0.24092415 0.06430878 0.32825372 -0.23138234 -0.3795939 -0.11742334 0.7055576 0.5596221 0.16002786 -0.034999777 -0.23111619 -0.35391164 0.19011751 -0.0928002 -0.07100084 -0.45342144 0.09769151 0.028300315 -0.4719478 0.30645385 -0.42609596 -0.3810079 -0.44993907 0.5204317 -0.033518508 -0.2639429 0.5311672 0.064430505 0.23730363 -0.0993196 -0.0040134266 0.040886905 0.11017806 0.5747312 -0.52864593 0.33505177 0.4678518 -0.12310737 -0.30826247 -0.26249105 0.03549832 -0.48221192 0.4856249 -0.16436936 0.050965216 -0.33567643 -0.47821948 0.4843021 -0.48659623 -0.51613516 0.73922 0.06600227 -0.23205449 0.30041122 -0.25360596 0.2867933 0.048408423 -0.6286951 -0.53768533
vegetable -0.18073772 0.6551728 0.0059827035 -0.5418661 -0.044713877 0.43187436 -0.46857554 0.793535 0.05051145 -0.062057767 -0.6528756 1.4998425 0.23870265 1.4219377 1.1565428 -0.29932496 -0.29388133 -0.21607313 -0.90506566 0.34543553 -0.85595953 0.10430698 0.280946 0.6206818 -0.54405725 -0.3846462 -0.018259455 0.69030803 -0.21102153 0.6126102 0.072235234 0.08906896 0.52128714 0.23415367 0.7788715 -0.35124567 0.26020643 -0.25895008 0.68493855 -0.037403025 0.11851042 0.036763605 0.5316705 -0.1935098 0.24172045 -0.7134249 0.09049479 -0.57975084 0.6761447 -0.27693003 0.6172386 -0.36752853 -0.81923264 -0.34123847 -0.16756928 -0.18970883 -0.40742648 -0.23881944 -0.3736068 -0.4001243 -0.07111699 -0.025916215 -0.0688787 0.06423009 0.025653291 0.2479155 -0.6849444 -0.1653032 0.616205 -0.76861817 0.17465113 -0.20175162 -0.5244976 -0.27204338 0.051042017 0.39077836 -0.21104485 -0.40915114 -0.29329598 -0.47354203 -0.17317055 0.37586352 0.16563015 0.18037604 0.29243952 0.44381228 -0.79238087 0.18146236 0.09298792 0.035118457 -0.23628397 0.5859168 0.013973185 0.25934026 0.29730666 0.04441031 0.11979723 0.33947265 0.5771958 0.29450083
reine -0.20807624 0.0538739 -0.032277472 0.5043243 -0.32437077 -0.37273338 -0.40809613 1.5039512 -0.42543766 0.13315697 -0.8323721 0.63103217 0.09105714 1.1431413 0.75413513 -0.47446188 -0.45491868 -0.42893985 0.029954996 0.09143413 0.003281871 0.44466436 0.93930537 0.15872553 0.38682392 0.28322855 -0.4551669 0.24082758 -0.7560106 0.43737805 0.03972943 0.1291839 0.16609721 -0.13193786 0.33667246 -0.3024166 0.7062514 -0.9555937 0.4651183 0.505453 0.10060362 -0.03840279 0.73086226 -0.63304776 -0.07535077 -0.45514348 -0.29883468 0.38321885 0.9518959 -0.1267628 -0.23027039 -0.4700355 -0.32812515 -0.20092976 0.22692756 -0.6773278 -0.30479157 0.20366551 -0.25743437 0.2556686 0.22406003 -0.17805186 0.63195026 -0.324024 0.36721277 0.101772055 -0.11079898 -0.12628438 0.6629752 -0.16112867 0.23801547 -0.18606944 0.31866154 -0.37813982 0.33778262 -0.77046657 0.11312171 -0.2917962 0.32104084 -1.0041618 -0.23740761 0.7985663 0.3457453 0.21677677 -0.22301756 0.529434 0.086208016 -1.1044711 0.25192788 0.08831202 0.06465671 0.4350212 -0.7714756 -0.29350564 0.4406879 0.661411 -0.19023983 0.7548024 0.43300408 0.18153305
la 0.41391188 0.01826826 -0.22018497 0.24712451 -0.47138622 -0.18527783 -0.3158018 1.4425844 -0.08385459 0.15877295 -0.96287274 0.46267936 0.2520168 0.5147922 0.44628194 -0.43700358 -0.39844927 -0.8305766 0.121916726 0.32694533 -0.43884048 0.33283222 0.8994174 0.68284136 0.64956826 -0.27235427 0.019567505 0.25019932 -0.6584986 -0.09064954 0.41875756 0.4522004 -0.1730865 -0.11460939 0.75050694 -0.9018197 -0.107909456 -0.24752736 0.9477503 -0.26489526 -0.399517 -0.36794055 0.21290398 -0.20184867 -0.47829482 -0.6025241 -0.22312935 0.50606674 1.382069 0.042397488 0.027626837 -0.35354096 -0.23348154 -0.23149619 0.33743382 -0.5496274 -0.18036982 0.68784493 0.014680297 0.43436798 -0.3106816 -0.13901636 0.9397793 -0.08558693 0.17766291 -0.18107699 -0.018342914 -0.47814453 0.07247242 -0.6104827 0.39245322 -0.25203866 0.12226929 -0.4740717 0.49387223 -0.24115178 0.21525988 -0.5268245 0.056878354 -0.4260533 0.006329018 0.70956504 0.46946475 0.48516357 -0.35839579 -0.011343262 0.20884892 -0.60192287 0.3409624 0.24663001 -0.5076185 0.49630255 -0.20673336 -0.08657854 0.1745348 0.22220722 0.3071349 0.5246944 0.43705449 -0.4406515
or -0.47890085 0.39422196 0.26576245 0.24615075 -0.13498326 -0.24396911 -1.0543495 0.1203506 -0.3758125 -0.28448042 -0.7582799 0.45422572 0.7299649 0.8428078 0.1233322 0.023205616 0.068437144 -1.0453658 0.044083368 0.379384 -1.4324702 0.18128414 -0.13980372 1.0739294 -0.10889784 0.4543873 -0.25089276 0.26951775 0.3059236 -0.11442551 0.16783653 0.7332352 -0.34428197 0.96898335 -0.022510352 -0.45739135 0.7276177 -0.76130474 -0.46484888 -0.07500972 -0.04057404 -0.05593481 -0.1138301 0.0972915 0.095841266 -0.27803552 -0.32254606 -0.015225327 0.08868906 -0.07980226 0.36404297 -0.1360586 -0.24701203 0.20176569 0.57386607 0.4087512 -0.7168626 0.17498599 -0.020978214 -0.564384 0.36036077 0.08282827 -0.26564592 -0.452994 -0.19175817 -0.3464762 -0.35331085 0.14633314 -0.3585719 0.19824404 0.34019107 0.52804 -0.016108133 -0.47440934 0.33570248 -0.8133311 -0.14454466 -0.23298274 -0.34331873 0.2835064 0.30203435 -0.10488987 -0.45113832 0.6174014 0.30629262 0.4850245 -0.5771011 -0.02812314 0.28305587 0.008478283 -0.47674572 0.7247317 0.018792884 0.42221165 0.29643923 0.29886493 0.6749489 0.39940935 -0.1496402 -0.7273449
ham -0.45705867 -0.22351322 -0.17555475 -0.004921902 -0.3084686 -0.523159 -0.6623514 0.6833931 -0.130343 -0.091703735 -0.3458275 0.069903776 0.54584676 0.8981227 0.3017289 -0.6661845 -0.27244756 -0.52338636 -0.3313577 0.09324911 -0.25107795 0.58047676 0.5153756 0.13712978 -0.084594294 -0.24960679 -0.52664536 0.6961614 -0.4522386 0.09513993 -0.024585513 -0.12073937 0.2687389 -0.34577787 0.21734762 -0.6127174 -0.34400544 -0.36226788 0.034639984 0.62426114 -0.00586525 -0.15543166 0.6938442 -0.028570835 -0.23295312 -0.6614667 -0.060014386 0.9186027 1.280469 -0.08201403 -0.26835743 0.25827903 -0.59654737 -0.43716502 0.17819528 -0.36890993 -0.4215441 0.60942084 -0.09996302 0.09496834 0.17977312 -0.2740878 0.45943055 -0.4051537 0.027652368 0.14770864 0.2423647 0.1853086 0.0007297157 -0.13551605 -0.10585055 -0.45740733 0.45397538 -0.8034874 0.6247983 -0.40678957 0.4822216 -0.31054974 0.30636382 -0.6873851 -0.28306592 0.4239379 0.04998605 0.51921105 -0.6867634 0.35151792 -0.03829102 -0.8082377 0.25360063 0.12679778 0.0583137 0.18098491 -0.0018757212 -0.34615996 -0.057119213 0.0016122033 0.4630782 0.33426946 -0.002850983 -0.52011824
caprina 0.26725185 0.24681446 0.2539131 0.033939045 -0.2929667 0.16735743 -0.3516556 0.16835947 0.09814781 0.626764 -0.87818444 0.44834217 0.55653167 0.49269032 0.36292857 0.9306681 -0.120595284 -0.54851395 -0.09624083 0.6431172 -0.21355346 0.19388838 0.431204 -0.008263712 0.21130463 0.15508986 -0.5368929 -0.78107494 -0.40769017 0.12162524 -0.117351204 -0.21171242 -0.3504707 0.09216207 0.004537041 -0.20987642 0.2402569 -0.73025477 0.6065677 0.87766874 0.765479 -0.88757527 1.2214017 -0.43563193 -0.6712516 0.053328484 0.34523982 -0.041592967 0.4324983 0.3603838 0.46587604 -0.13780056 -0.25023437 -0.10081553 0.20300609 -0.963899 -0.18892328 1.0810323 0.3999379 0.27540293 0.063451 0.034305643 0.012168846 0.080577925 -0.30641958 -0.16104585 -0.32442772 -0.43188906 0.41961086 -0.34814477 -0.14322428 0.39914054 0.105670504 -0.060277946 0.05935132 -0.529873 0.01237272 -0.15080972 -0.010698482 -0.49024212 0.043457795 0.20000193 0.105714686 -0.07607741 0.57752776 0.58962613 -0.2326992 -0.7853809 -0.30921566 0.20335308 -0.07848211 0.32600102 -0.20993686 0.5602167 0.6839434 0.71153563 0.2166438 0.26935726 -0.21525635 -0.37505028
http://www.co-ode.org/ontologies/pizza/pizza.owl#NamedPizza -0.5576547 -0.9496521 -0.375436 -0.23317409 -0.56381756 -0.27662864 -0.13218364 0.22647971 -0.68932945 -0.20301843 -0.82756364 0.30452174 0.28137136 0.22344549 -0.072669856 0.6207144 -0.040134612 -0.13055028 -0.08360443 -0.4521653 0.45274836 0.05399363 0.3569083 0.4249475 -0.2690219 -0.13340893 -0.2904196 0.34523457 -0.96158516 0.25749415 -0.6074703 0.8148749 -0.69818586 0.05647083 0.41914818 -0.52218765 -0.6091482 -0.15014699 0.2663991 0.30451617 -0.11509994 0.13658097 0.33506203 -0.1820784 -0.7330817 0.0023879015 0.03234239 0.5920951 0.697442 0.589826 -0.19119075 0.080960386 -0.0993183 0.3217835 -0.13917941 -0.8838343 0.24239832 0.021301864 -0.46784022 -0.09072442 0.45531613 -0.53495675 -0.18203688 -0.04738585 0.38641748 0.14096741 0.6570549 -0.24885987 -0.1539339 -1.0656265 0.89540493 -0.27204132 -0.17854974 0.031352703 -0.044375084 0.18222642 -0.43770897 -0.08904004 0.1691426 -0.72904456 -0.041526683 -0.19491644 -0.71822387 0.6861638 -0.1857394 0.7582592 0.19867916 -0.5348038 0.5858736 0.09626284 0.012384193 0.62692696 -0.43220663 -0.71226317 0.49701756 -0.26329544 0.27314466 -0.094986364 0.0002880537 0.57158417
origin -0.29729196 0.66863775 0.009248111 0.65146565 0.10268124 0.42124274 -0.38882616 0.372688 -0.10636725 -0.28875428 -0.040334165 0.19060221 -0.15689485 0.5266029 0.55975425 0.4252675 -0.3451807 -0.82167935 0.5967003 -0.24356212 -0.53656405 -0.048424456 -0.08704558 0.041808873 0.26231164 0.12926677 0.36267442 0.10216327 0.35514683 -0.2938533 0.053186066 0.5293944 -0.63657206 0.15314396 0.6635131 -0.7786279 0.4421292 -0.20688841 -0.028034892 0.12191381 0.1815451 0.077247724 0.35352263 0.16134365 -0.9103801 -0.42780948 -0.19222514 0.83807564 1.1191653 0.36281595 0.25921822 0.18040967 0.4990672 0.169165 -0.030816684 -0.7957021 -0.35998708 0.28474024 -0.11131638 -0.5508339 0.69640976 -0.19051112 0.19089024 -0.0529263 -0.17623119 0.48594993 0.07308313 -0.6271216 0.14439337 -0.407858 0.445285 -0.12959804 0.0018797924 -0.02942362 -0.5397626 -0.20543781 -0.8196218 -0.6093092 0.557779 -0.36031273 0.10837603 0.37933508 -0.039717022 0.33753672 0.13130568 1.1669326 -0.16719423 -0.61205834 0.42212084 0.07456136 0.40276897 0.6087243 0.097608246 -0.08090372 0.45790642 0.34812698 0.48887536 0.26121813 0.38704437 -1.1603734
http://www.w3.org/2004/02/skos/core#altLabel -0.27208787 -0.096663035 -0.09449977 0.084774114 -0.41856268 -0.075067334 0.23050787 0.35529783 -0.24287297 -0.07634669 -0.86004144 0.61448145 -0.39959863 0.20762378 0.35810953 0.48502544 -0.35920313 -0.3466159 0.3057348 -0.1371885 0.0422118 0.17896232 0.008279243 0.7052715 -0.4487105 -0.17164186 -0.22257163 0.008161766 -0.27206966 -0.06805076 -0.06857629 -0.04774429 -0.49010432 0.2227926 0.3239884 0.14892913 -0.07053265 0.08358927 -0.041353106 -0.17227598 0.063228585 0.29784858 0.067324854 0.08685915 -0.5644929 -0.19635251 -0.12147662 0.63476646 0.53192127 0.013882686 -0.06940447 -0.18371227 -0.06393481 0.048331864 -0.06999748 -0.5127846 -0.3498416 -0.03646153 -0.09718026 -0.417409 0.47648457 -0.3380565 -0.6729047 -0.4588738 0.36905518 0.012292224 0.08056861 0.031296264 -0.46145198 -0.7497173 0.46459585 -0.19739915 -0.14157377 -0.44370207 0.14776808 -0.034956474 0.024064897 -0.20545515 -0.29093698 -0.19615543 0.11419287 -0.07458305 -0.3058406 0.5820642 -0.09911851 0.5950573 -0.08477539 -0.73025584 0.07043384 0.093706906 -0.2050005 0.993948 -0.32074785 -0.42258012 0.6812685 -0.26609585 0.56971204 0.14232814 -0.18272889 0.2344561
garlictopping -0.9474563 0.3357013 -0.2237572 -0.62037295 0.17980814 -0.316628 -0.27022228 -0.16847157 -0.55836886 -0.38639882 -0.9183088 0.2280274 0.05691462 0.4432691 0.015839688 0.06610585 0.028923055 -0.465427 -0.49285877 -0.78371775 -0.32446045 0.22055875 0.6008994 0.27678376 0.118014894 -0.4286169 -0.4135704 0.025675893 -0.42200598 0.072453 -0.8920228 0.46361732 0.013624321 0.37519604 0.47770873 -0.51650816 0.21529046 -0.61685383 0.18881051 -0.013679194 0.05420994 0.032405626 0.6813855 -0.48469925 -0.50632036 -0.46429858 0.049961936 0.06815727 0.96946895 0.3030992 0.27587894 -0.43873346 0.18828358 -0.2407218 -0.43932864 -1.0874003 0.06406576 -0.05049509 0.20073442 -0.4707192 0.16341698 -0.5989638 0.4476117 0.16270187 0.35172713 -0.022212882 -0.11541004 0.33943686 -0.0752406 -0.09622967 -0.70069414 0.16934864 0.16321158 -0.16609134 0.38265756 -0.36567155 0.14694084 0.47317886 0.09882563 -0.1867197 0.15862294 0.07012494 -0.6615908 0.6899407 -0.13651904 0.14034887 -0.41740516 0.097112566 0.2951564 0.19936775 -0.41160825 -0.024609596 0.17182186 -0.18333782 0.65805227 0.14722835 0.34787896 0.17814761 0.25462282 -0.5457173
olive -0.11437432 -0.27752864 -0.15036388 0.08828455 0.2497256 -0.07255814 -0.46300682 0.3997707 -0.5804784 -0.49727076 -0.8154757 0.12789015 0.19572945 0.5329398 0.5304194 -0.30414376 -0.18620488 -0.82703733 -0.11302868 -0.6680759 -0.42801824 0.32351258 0.7995747 0.05709425 0.51567185 -0.26664004 -0.17620075 0.37448445 -0.6319878 0.4172053 -0.24985683 0.24055839 -0.4674611 0.24589235 0.8952637 -0.8057619 0.39476603 -0.34089473 0.17822309 0.044782206 0.025032932 -0.21315609 0.7147345 -0.42091867 -0.23638792 -0.47210392 -0.34241024 0.2740869 1.1514956 0.3538341 0.13072844 -0.04381794 -0.31439462 -0.4733754 -0.3277284 -0.7920899 -0.17018427 -0.052493427 -0.08504659 -0.08674519 0.6893077 -0.47044554 0.6647887 0.79856 0.47121224 0.38814768 0.14360449 -0.33173484 0.36927563 -0.72498935 -0.27813178 -0.18721676 -0.12580444 -0.16579759 0.4701722 -0.29483107 0.0077262195 -0.27634323 0.2271881 -0.58697677 0.11572416 0.06153916 0.15453732 0.42473593 -0.30200216 0.5096767 -0.2625976 -0.80488837 0.83654535 0.073825866 0.42807522 0.28454483 0.15621144 -0.32648748 0.1994921 0.09263174 0.08974984 0.35786623 -0.0021481754 -0.48415983
parmese 0.29351377 0.28806102 -0.16519679 0.30856088 -0.5736353 0.22122379 -0.84317535 0.85073584 -0.058631975 0.45074007 -0.44771817 0.9793002 0.4734689 1.4404522 0.47260815 -0.4421675 -0.32898957 -0.7187345 -0.32778966 0.2942905 -0.47543624 0.4530725 1.1647694 -0.28249544 0.24559534 -0.1965419 -0.34150034 -0.20148176 -0.0799631 -0.1499775 0.50389796 -0.022922872 0.3563564 -0.08084036 -0.12474637 0.12137901 -0.12628879 -0.48822162 0.15026236 0.8284772 0.15011244 -0.4048319 0.25043803 -0.0491956 -0.72342813 -0.11011305 -0.2564231 -0.1518727 0.7345513 -0.40853244 0.41199136 0.1500175 -0.34672162 -0.27449426 0.19238842 -0.86386293 -0.19778915 0.42912924 -0.06518445 0.19245571 0.1375971 -0.11915021 0.16978009 -0.19299807 -0.18353495 0.44110158 -0.40819386 -0.20796353 0.40328962 -0.7481853 -0.0008397246 0.30124167 0.14830855 -0.68919575 -0.13021563 -0.10279726 0.14844406 -0.43327308 0.3716219 -0.6682666 0.22958398 0.8237976 0.5073506 0.13533455 -0.3638485 0.21369986 -0.30662942 -0.38647157 0.27149427 0.4733638 -0.18483919 0.3366145 -0.12939633 -0.30155066 0.6614329 0.11058387 0.53034073 0.50246286 0.3646561 -0.5052184
giuseppe -0.40841293 0.8335859 0.6068827 0.43710726 -0.00745844 0.14708841 -0.7604993 0.25066665 -0.46574172 0.7341757 -0.42105356 1.0136738 -0.061766785 1.6803671 0.20684032 0.70124906 -0.71120363 -0.8982598 -0.77650785 0.33595157 -0.4114823 0.058712285 0.512543 0.36554408 -0.115437694 -0.40431455 -0.14018086 -0.61251795 0.4338641 0.4376582 -0.28568944 0.743398 -0.2800001 -0.1007658 0.2098991 -0.32849154 0.28637788 -0.3142228 0.69415575 0.5608753 0.109198615 -0.48386213 0.2491017 -0.1610956 -0.155111 -0.40290374 0.2177846 0.08709699 0.9286214 -0.32600182 0.67414844 -0.4161355 0.5724012 -0.026613805 0.37129077 -0.41330573 -0.008566697 0.75666624 -0.32729423 -0.34883234 -0.2324221 -0.39898047 0.21238844 0.24212918 -0.9382383 0.62510306 0.08781826 -0.32379398 0.13655517 -0.032776035 -0.14129674 0.30086342 -0.12701821 -0.2205636 -0.60568917 0.1668717 0.34304327 -0.40969163 0.48509803 -0.5134126 -0.24315342 0.717356 0.6363583 -0.6319285 0.469136 0.4692224 -0.32978812 -0.78397304 -0.054120854 -0.31595707 -0.0565911 0.8720052 -0.2147916 0.12001589 0.990474 0.9513232 0.083098955 0.014101441 0.12949643 0.057379723
sloppy 0.27114406 0.56984115 0.5978938 0.3685249 -0.14445686 0.398513 -0.16812444 0.5779768 0.46713993 0.3265972 -0.81320757 0.8039609 0.2380942 1.3232014 0.3314462 0.6751893 -0.010573223 -0.27953142 -0.5724203 -0.20212157 -0.5467941 0.39361283 0.43034938 0.31550384 -0.4754131 0.3450622 -0.35184884 -0.2063038 0.29765782 0.35980213 0.2756603 0.808619 0.45152158 0.040358923 0.51549757 -0.3554782 -0.009856408 -0.17522736 0.5511481 0.17660154 -0.08442122 -0.3024207 0.25897676 0.2227041 -0.06390674 -0.824081 0.38700616 0.143174 1.0304563 -0.19673814 0.99376684 -0.23707229 0.40659058 -0.26311794 0.63187075 -0.97109735 0.30308908 0.43185806 0.0063579655 -0.44431138 -0.29887077 -0.6944564 0.5120225 -0.27804402 -0.5830774 0.3678618 -0.5784562 -0.54349416 0.07656032 -0.06640954 0.18817683 0.35570338 0.15363325 -0.4333007 -0.32251382 0.26973188 0.18905151 -0.6132093 0.22696036 -0.29865533 -0.2218685 0.96771765 0.1212046 -0.02330973 -0.08855959 0.7002399 -0.34181023 -0.67358536 -0.011700641 -0.13417508 0.19513375 0.32470027 0.28902522 -0.08761606 1.0283233 0.9691648 0.35935882 -0.42286617 -0.40849727 -0.1897939
onion -0.5226975 0.3229413 0.10477982 -0.18234769 -0.005586281 -0.1644785 -0.63757855 -0.12855576 -0.5862899 -0.12480785 -1.1350443 0.79645085 0.1771498 0.7457512 0.0504847 0.54139197 -0.76920694 -0.6909073 -0.8188728 -0.8510907 -0.61622614 0.4335618 0.4179556 0.26548842 -0.5295401 -0.07661607 -0.56387734 -0.02736326 -0.03965781 0.32541052 -0.60163 0.8667254 -0.0014513355 0.48376864 0.11122888 -0.82412016 0.24539946 -0.10625832 0.18395999 0.024701588 -0.04670414 0.0091603035 0.74364907 -0.26496887 -0.08326391 -0.7003303 -0.07230077 0.1438569 0.4591872 -0.04111274 0.4109779 -0.3227613 0.32317752 0.17491311 -0.43125767 -0.78242636 0.2695833 0.27468243 -0.40238994 -0.9121581 -0.49302685 -0.72260904 0.20686463 0.5934825 -0.034295123 0.62834746 0.23091306 0.13860641 -0.3834832 -0.14219378 -0.49148193 0.3156355 0.362221 0.25326374 -0.09854457 0.011025599 0.13814436 -0.012692464 0.03459676 -0.1188199 -0.041803706 0.19216904 -0.18012537 0.15585846 -0.26802936 0.9130612 -0.18621635 -0.67890394 -0.045178406 -0.21476348 0.24794707 0.1563423 0.28690904 -0.0973916 0.6454059 0.64392424 -0.1639877 -0.09013437 -0.54036474 -0.31235635
spice -0.18898763 0.7054805 -0.831844 -0.67088157 -1.096308 0.69700605 -0.17300148 0.15601829 -0.5446567 -0.0078348 -0.7556709 0.24709268 0.28731343 1.0463446 -0.32101676 -0.31233972 -0.098052055 -1.0175654 -0.5464193 -0.6178744 -0.7539974 0.560939 0.2145566 0.20540535 -0.2825432 -0.44231597 -0.9096607 0.24906361 0.20594096 -0.5514396 -0.2046204 0.38365144 0.31333596 0.24088712 0.19105916 -0.6379912 0.5475319 -0.2382064 0.57246614 0.6277992 -0.037652783 0.00974248 0.4888072 -0.43676385 -0.37699798 -0.2711516 -0.3970386 -0.23382953 0.084174745 0.13035016 -0.3978959 -0.1724741 -0.0042704022 0.3703979 -0.40913317 -0.34967247 0.2089471 0.27007726 -0.76754373 -0.85071987 -0.341978 -0.62854445 0.30927986 0.3436627 -0.09171661 0.27982968 -0.07053255 0.10841727 -0.13065603 -0.5457875 -0.16801733 -0.19125617 0.035487186 0.30891693 0.18367277 -0.34874243 -0.8566966 0.5177385 -0.110720046 0.16980109 0.15902124 -0.11232019 -0.37111747 -0.08157858 -0.64935845 0.70003796 -0.5033795 0.20625919 0.5958343 -0.1570406 -0.45760015 0.2547841 0.3175065 -0.3762574 0.37724018 -0.03308149 0.330647 -0.39280212 0.22507921 -0.16451423
http://www.co-ode.org/ontologies/pizza/pizza.owl#VegetableTopping -0.2518427 -0.2444597 0.0033002547 -0.66953653 -0.47792912 0.20520289 -0.6956745 0.76678985 -0.24746202 -0.16257462 -0.6823488 1.0085243 0.24678153 1.1874917 0.53323233 -0.26437828 0.15551457 0.03533765 -0.86938506 0.03710918 -0.4929729 -0.0016339399 0.15223023 1.16555 -0.60319865 0.38860077 0.15879497 0.6167551 -0.4800221 0.29258788 0.25160635 -0.063858196 0.50062656 0.42676243 0.3122978 -0.121929646 0.23391959 -0.35961083 0.7751477 0.1544459 0.22107232 -0.01624106 0.61840135 -0.19002642 -0.009487496 -0.21424574 -0.1393284 -0.43958783 0.28911805 0.025546674 0.30979487 -0.40654865 -0.8683323 -0.13989952 -0.046043843 -0.21385173 -0.5537598 0.10064691 -0.56914264 -0.36813098 -0.4949649 0.30062526 -0.68130636 -0.5464514 0.275315 -0.30040032 -0.13843769 0.19672784 0.049992017 -0.69168735 0.28202978 -0.2657729 -0.43398774 -0.3202028 0.6953039 0.28970912 -0.26267427 -0.20038025 -0.0771387 -0.1289064 0.11487714 0.010375651 -0.21601808 0.3384488 0.09139126 0.38225162 -0.2480944 -0.06764394 -0.1253613 0.13790092 -0.61539996 0.7243699 -0.43024516 0.08319594 0.25794432 -0.11458589 0.27866378 0.38517687 -0.12723681 0.7077394
rosa 0.36649707 0.41720876 -0.23735757 0.18200503 -0.56489325 0.030690705 -0.24087992 0.59146893 -0.018614635 0.203385 -1.1099129 0.22223385 0.47223252 0.73573637 0.3113437 0.4318593 -0.31355265 -0.8486273 0.12262408 0.4688325 -0.26514345 0.41316402 0.46100017 0.13662094 0.2003461 -0.10905964 -0.63242316 -0.27731544 -0.21921612 -0.011364719 -0.1312101 0.37800938 0.00054407655 -0.10501423 -0.26776642 0.20319869 0.4279321 -0.46529222 0.7000853 0.83015966 0.08065721 -0.6230871 1.0394782 -0.19741681 -0.5588607 0.16257238 0.15748872 -0.079426736 0.41106725 0.17224947 0.43592724 0.26980537 0.3510348 0.18854123 0.09785083 -0.6498089 -0.2665268 0.77452266 -0.18614365 0.46304265 0.12958659 -0.014821019 0.11985589 0.24890932 -0.2722561 0.36208758 -0.34265542 -0.3000397 0.098175734 -0.46739817 0.023671754 0.3840579 -0.26325867 0.41207218 -0.17225046 0.27010396 0.2891108 -0.2581574 0.29145747 -0.341222 0.2766031 0.067968294 0.10089519 -0.04945149 -0.049149875 0.3456976 0.19058448 -0.74701697 -0.27799025 -0.1444038 -0.56493706 0.17035171 -0.32169628 -0.15094955 0.6050822 0.26512876 0.175714 -0.19349596 -0.10625269 -0.49596304
oniontopping -0.49526918 0.010653934 0.25103977 -0.23649193 -0.22853944 -0.35949564 -0.67046016 0.19362631 -0.45235357 -0.01105364 -0.8698992 0.63314885 -0.037261967 0.5538462 0.026207775 0.4159089 -0.73034585 -0.8952626 -0.5700301 -0.6444549 -0.44974083 0.51160556 0.1431025 0.49814597 -0.32289124 -0.07711484 -0.44324374 0.04077999 0.16902116 0.45053676 -0.08482992 0.6874734 0.043071035 0.38905698 0.25453788 -0.99217594 0.16870373 0.021534782 0.41180214 0.06553123 0.1414253 -0.0046857516 0.32962593 0.08610343 0.13862468 -0.48671725 -0.21196036 0.2696749 0.29223025 0.29441944 0.644187 -0.39261043 0.15310821 0.090156846 -0.2306059 -0.6047027 0.028141903 0.41006616 -0.3847325 -0.59824216 -0.45318547 -0.7347784 0.3078075 0.6211455 -0.07276973 0.47857222 0.05054273 0.12159937 -0.5540503 0.11513536 -0.7186777 0.34091648 -0.06446691 0.043516345 0.25602707 -0.12341476 0.15513122 -0.2226963 0.17142099 -0.13161518 -0.119037665 0.29417554 -0.03504704 0.0137722315 -0.19902901 0.8239505 -0.30268067 -0.61547863 -0.054957088 -0.29523382 0.23161049 0.4543073 0.23501465 0.012283987 0.43796685 0.6257636 0.014545968 0.024683995 -0.37668854 -0.2287691
parmezantopping -0.16740465 0.11719127 -0.39415994 0.06687115 -0.49763602 -0.33038968 -0.7539065 -0.09023397 -0.45284513 -0.054689992 -0.87228745 0.4273981 0.6438571 0.74970174 0.25620207 -0.42062256 -0.10430748 -0.55361956 -0.22369741 -0.08844431 -0.141953 0.5180875 0.49900967 0.19373482 -0.07045103 -0.41737875 -0.38769287 0.02260485 -0.6794547 -0.32236958 -0.018861692 -0.23980682 0.07639796 0.3329707 0.20903394 -0.040072247 -0.45457533 -0.30169547 0.41163886 0.7014632 0.1563968 -0.29423952 0.87615716 0.25848186 -0.7471817 0.18958119 -0.17696474 -0.086825944 0.48965088 0.19519867 -0.15033938 0.093879245 -0.114768766 -0.30440804 -0.25092936 -0.66908485 -0.4388755 0.2645871 -0.006420103 -0.24287857 0.6311955 -0.4734956 0.41417992 -0.20377114 -0.041801758 0.106866315 -0.17852522 -0.19539353 -0.0014492823 -0.7772325 -0.31450135 -0.0014749648 0.019486105 -0.055670477 0.4650537 -0.2572845 -0.21303101 0.15693255 0.12349642 -0.63987 0.08859742 0.011371987 -0.2574884 0.57053536 -0.12866473 0.42607695 -0.66341287 0.16662377 0.9371059 0.4415048 -0.00031381595 0.09812976 0.21352427 -0.028071322 0.49576858 0.025665594 0.63483185 0.37086645 0.5256666 -0.6053098
caper -0.4034248 0.0026761275 0.3226253 -0.055903398 0.23606943 0.22268663 -0.61806333 0.6138316 -0.79770136 -0.39996397 -0.7018727 0.20531085 0.2695673 0.34446365 0.24579637 -0.29263178 -0.21700019 -0.7431507 0.04589947 -0.7493651 -0.5144715 0.1640305 0.21088207 0.46368295 0.4807982 0.1679018 -0.2672423 0.1514762 -0.5403154 0.26077652 -0.028773233 0.25057304 -0.2992499 0.7101573 0.42963606 -1.057408 0.12523022 -0.090174794 0.23827328 0.30775404 0.23465142 -0.60505 1.0443394 -0.10916658 -0.08191244 -0.37628695 -0.042962722 0.43921235 0.8010487 0.51518995 0.29393238 -0.31542668 -0.5269458 -0.57956326 -0.1709543 -0.16499062 -0.28448483 0.36945865 -0.02562036 0.059599917 0.29518133 -0.10469184 0.4942821 0.49459687 0.17087327 0.20482244 0.18415737 -0.24894354 -0.14483716 -0.11316888 -0.72990906 -0.35402894 0.007838144 0.21741457 0.44755116 -0.2537571 -0.010848509 -0.40509993 0.23447952 -0.33361977 0.36627978 -0.3344429 -0.07856229 0.43177325 0.04810703 0.46129012 -0.3766688 -1.0240549 0.3606697 -0.13141541 0.18882975 0.35536298 -0.09476384 0.12529111 -0.054430727 -0.052111354 0.20397976 0.18202557 -0.44092283 -0.08305152
americanhot -0.07054015 0.21639137 0.48849177 0.055159267 -0.009710352 0.66514456 -0.14954932 0.87771726 -0.5674621 0.56935656 -0.07567126 0.15081745 0.29983634 1.0845063 0.4551024 0.39840686 0.12924673 -0.32369918 0.104706645 0.27307114 -0.15381145 -0.02723899 -0.07745091 0.3509491 0.5599776 0.36036736 0.039856087 -0.44693366 0.3714696 -0.26790115 0.08502522 0.30850744 0.07027153 -0.050328005 0.10943279 -0.40221655 0.29584143 -0.49662977 0.8771718 0.35240102 -0.31013453 -0.9457283 0.4642021 -0.12911156 -0.41631943 -0.014021617 0.3418411 0.60851437 0.71076584 -0.14720206 0.45496917 -0.547328 0.11886942 -0.013845589 0.9136981 -0.5592572 0.04826732 0.43784267 -0.50424993 -0.093304776 -0.11403081 -0.2768022 0.24110873 -0.04357565 -0.35569364 0.256246 -0.6018893 -0.31843066 -0.27785885 0.024060715 0.5211246 -0.28010514 -0.21561216 0.063583665 -0.037984695 -0.033498965 -0.208661 -0.102646515 0.23280185 -0.80726784 -0.07041665 0.41592848 -0.24343523 -0.01721224 0.0763629 -0.14879568 -0.6209976 -0.9105211 -0.3560686 0.32572588 -0.24857518 0.22862215 -0.27042478 0.06731789 0.36007982 0.22028732 0.4847272 0.21282956 -0.11539541 -0.2290326
sloppygiuseppe -0.03314339 0.46391982 0.6767912 0.2938029 -0.14823627 0.107543595 -0.27350616 0.4911824 -0.10740159 0.5745844 -0.5105694 0.76924175 -0.06982791 1.3063552 -0.010782639 0.65522015 -0.26594177 -0.42148933 -0.473394 0.22153328 -0.15049337 -0.057467595 0.27069956 0.45938015 -0.35236028 0.35401303 -0.10793534 -0.5969951 0.2647469 0.24275814 0.12276554 0.62712175 0.3150288 0.055458974 0.17609136 -0.5056619 0.01377454 -0.26271948 0.6425503 0.30353034 0.036583696 -0.5342662 0.3053618 0.109559834 -0.1652757 -0.46615893 0.25348604 0.17956354 0.73010164 -0.10227815 0.53037626 -0.43074077 0.37763646 0.0023935959 0.492178 -0.55484545 -0.06078368 0.8042981 -0.11022445 -0.37586704 -0.3749618 -0.4225452 0.11509691 -0.27943924 -0.68387854 0.2673462 -0.3680087 -0.20302068 -0.04793596 0.08826676 -0.081261545 0.25124416 0.10740596 -0.2094115 -0.11704517 0.19989833 0.18420625 -0.37192845 0.25130466 -0.39249918 -0.3291182 0.724016 0.23522991 -0.15348132 0.23590823 0.34806117 -0.25518364 -0.7982976 -0.50630754 -0.38737354 -0.2506444 0.17110907 -0.09826757 -0.030762602 0.6334547 0.7044249 0.10083133 -0.11447405 -0.2520976 0.0035260185
comment 0.21624672 0.49057406 -0.4879561 0.1649784 -0.23318544 0.5802225 0.6092078 0.013872958 -0.12981099 0.39384434 -0.4322061 -0.117989264 -0.7765244 0.040547866 0.10559392 0.5166114 -0.030542364 -0.86229914 -0.23529536 -0.44136435 -0.3004707 0.2515448 0.8411657 0.042830616 0.1328158 -0.22275029 0.12159832 -0.34772187 -0.28090215 -0.17411351 -0.43753096 0.42346492 -0.35906643 -0.02739457 0.75746244 0.17814222 0.5806555 -0.25581273 -0.23414709 0.3789028 0.6972975 0.26756147 0.2840122 -0.26212654 -0.3513792 -0.27500394 0.051529583 0.6032285 0.6673945 0.27086088 -0.09968783 0.19326971 -0.25107625 0.33278796 -0.09282105 -0.5591522 -0.32457966 -0.06566314 -0.3382551 0.26694602 0.14883578 -0.009277549 -0.27671918 0.43821824 0.29736835 0.41723105 0.016652016 0.1317498 0.39096963 -1.0696583 0.20570563 -0.48586744 -0.40158325 -0.4531873 0.6405895 0.37318686 -0.348131 -0.035008855 -0.06720197 -0.50356424 -0.26897308 0.6387316 0.36085445 0.04803355 -0.28791413 0.3282749 -0.12030952 0.2938677 0.48112813 -0.39228687 0.27094507 0.4778841 0.5243851 -0.32447278 0.3705004 -0.29641062 0.5606583 -0.2777782 -0.4756143 0.2661683
parmense 0.29266113 0.15777427 -0.17887418 0.2759673 -0.6707983 -0.1272176 -0.65774584 0.9250462 -0.013324609 0.32770118 -0.5149835 0.80683106 0.32978973 1.1188134 0.16457531 -0.40121585 -0.26218984 -0.53060067 -0.18562494 0.57102144 -0.07509331 0.33432493 0.8790802 -0.025478996 -0.016626399 -0.036225308 -0.21730311 -0.080391265 -0.21671236 -0.30125803 0.48330396 -0.099079244 0.4542958 -0.12775582 -0.12662649 0.002963012 -0.20848477 -0.4583816 0.38709787 0.66727793 0.13459276 -0.4498495 0.23107372 0.043028336 -0.6423307 -0.10158673 -0.29482532 -0.010382019 0.48875147 -0.40758288 0.26169437 0.05593988 -0.30488443 -0.27111647 0.12790044 -0.7626223 -0.43114224 0.59901595 -0.040783975 0.15904057 -0.02180901 -0.2859453 0.0073833386 -0.49894848 -0.1619742 0.31717363 -0.5086004 -0.026853228 0.16319706 -0.5109183 -0.052170243 0.2658439 0.10212286 -0.57429075 0.25679243 -0.10645427 0.0820068 -0.30650744 0.31163973 -0.88768315 -0.04874091 0.659987 0.120460294 0.24398121 -0.31855202 0.21244769 -0.20010218 -0.5050444 0.02055746 0.32556117 -0.3378878 0.05875348 -0.28285912 -0.31855848 0.46521193 0.05033507 0.2894844 0.47186133 0.32702562 -0.3896555
food 0.28597492 -0.039131645 -0.070632696 0.23025638 -0.15497692 0.7033883 0.14117226 0.041625977 -0.5745179 0.44235894 -0.05223574 0.20669484 0.21008594 1.301324 0.46728227 0.4838811 -0.14810102 -0.16702598 -1.2486755 -0.5100031 -0.23046036 0.15209657 0.8372225 -0.1422574 0.22682239 -0.3625472 -0.8377398 -0.058044918 -0.18996531 -0.3886661 -0.34805408 -0.12776203 0.23209676 -0.086000025 -0.42085642 0.37413988 -0.45121795 -0.76477766 0.8233136 0.9801766 0.6273163 0.066335805 0.9173809 -0.5533271 0.51562864 -0.40768868 0.6535728 0.33860072 0.9380759 0.3121182 0.1396163 -0.60135996 -0.31478605 0.3651715 0.1002736 -0.6518946 0.11834364 0.62767184 -0.20396715 -0.10849365 -0.03395065 -0.3237214 0.49574408 0.3667538 -0.50204754 0.77111626 0.06663512 -0.28972593 0.31304997 -0.6517281 0.2453512 0.0187436 -0.21110694 -0.007744672 -0.29580167 0.6734718 -0.09590512 -0.5311271 -0.18627977 0.30649862 0.0026917972 0.13637923 -0.06731454 -0.3814082 -0.45497206 -0.14529623 -0.17551924 -0.4813293 -0.06362827 0.31165895 -0.14885893 0.013055037 -0.2524235 -0.015647266 -0.07335096 -0.54032475 -0.23454325 -0.12154678 -0.5930031 -0.44641468
pizza2 0.17857112 0.48143238 -0.1852509 -0.32286057 -0.43251976 0.6519797 -0.7067446 0.37329885 -0.32317528 0.03846276 -0.6138 0.28396726 -0.32657754 1.169439 -0.7576401 -0.2614755 0.28365436 -1.0508802 -0.8078655 -0.3757928 -0.669014 0.3979531 0.43174258 0.44257268 -0.014426116 0.02122655 -0.669548 -0.4224258 -0.081335045 -0.18228902 -0.29909265 -0.27184418 0.121972956 0.40853098 0.78312314 -0.56001663 0.43836302 -0.43287122 0.79301506 0.2889299 0.8074673 0.09259094 0.643071 -0.53679824 -0.3313642 0.4340816 -0.40355796 -0.23051216 0.9102481 0.66064775 -0.16584395 -0.44921765 -0.18013503 0.07526592 0.082682796 0.10298411 0.08180348 0.6445553 -0.27990028 -0.08512156 -0.49864087 0.12965482 0.5713151 0.22818741 0.22667718 0.5034183 -0.23378631 -0.010696019 0.12646458 -0.50892407 0.3293405 0.47382295 0.49264428 -0.6007734 0.71401596 -0.2161309 -0.79002506 -0.51700455 0.1825009 0.25562692 0.05009224 0.07026298 -0.23617116 0.29594007 0.020926641 0.30176264 -0.545003 0.19234389 0.8504975 -0.17785262 0.22120859 -0.29350907 0.610312 0.13087723 -0.06992374 0.36076862 0.4513513 -0.40739298 -0.07808871 -0.7340981
seafood -0.7363459 0.24038261 0.24774264 -0.53201175 0.3091897 0.013536041 -0.20208544 -0.1618842 -0.55929875 0.077634856 -0.03181516 0.04821935 -0.06498647 0.26300356 0.58823436 -0.28535655 0.22306652 -0.4180059 -0.7196293 -0.63730425 -0.22176619 0.11823763 0.17952976 0.31417105 0.280308 -0.30607608 -0.46341482 0.056432616 -0.12933919 -0.2144571 -0.8749232 0.23830332 -0.18386534 0.7226616 0.22061878 -0.12696403 0.06350946 -0.3068712 0.4104576 0.63492197 0.307619 -0.10431029 0.8297453 -0.7760815 -0.13187915 -0.53034455 0.50876415 -0.23133586 1.139401 -0.15467791 0.70362073 -0.6431051 -0.18533877 -0.27778733 0.10473793 -1.3404421 -0.03361065 0.37832773 0.35464352 -0.15417267 0.3078889 0.4074553 0.49645388 -0.01912754 0.16721158 0.12619196 -0.23773785 -0.072481655 0.47338706 -0.59689134 -0.18931207 -0.46611583 -0.28551075 -0.39673355 0.35300124 0.12606053 0.06954273 0.23511532 -0.06539242 0.24302614 0.63040507 0.3363455 -0.30022842 0.4611705 -0.02585776 -0.5211848 -0.18878688 -0.1752748 -0.45184442 0.26271874 -0.45778552 0.7826707 -0.403255 0.61275935 0.34979367 -0.18094614 0.5433245 0.41555002 -0.18827632 0.3505005
sausage -0.73038673 -0.19387898 0.20395654 -0.54581225 -0.051876154 0.13502519 -0.4658093 0.265484 -0.81381553 0.49903387 -0.11150599 -0.19192222 0.67486966 0.6033591 0.14828314 0.15722214 0.21730132 -0.43736425 0.383894 -0.5217325 -0.4993725 0.4903424 0.0039407276 0.6777096 0.54178655 -0.13930893 -0.19729644 0.12040411 0.13687217 0.09610204 -0.02304982 0.3941052 -0.15707245 0.3288334 0.7861763 -0.8337284 0.3147956 -0.36351424 0.29293695 0.86663646 -0.04774495 -0.05658063 0.87865245 0.049055852 -0.75375396 -0.19976659 0.30806446 0.9755104 0.99918085 0.09972162 0.5982738 -0.58231586 -0.09723874 -0.5056534 1.0287147 -0.22775915 0.06494534 0.32565418 -0.5032915 -0.17399056 0.70116407 -0.78559715 0.7308844 0.4490732 -0.39653435 0.4644701 -0.060835414 -0.532047 -0.34568563 0.17924432 0.13734476 -0.75387126 0.014278953 0.19837987 0.8782374 -0.39513206 0.010524539 0.34116256 0.46106103 -0.6607198 -0.3747407 -0.3983571 -0.14245474 -0.008336241 -0.47730795 -0.081047945 -0.3980352 -0.7239105 0.21825176 0.19987121 0.1320694 0.3528986 -0.08327397 -0.1201913 0.18781906 0.32304937 0.94364536 -0.015476621 -0.54772633 -0.066459745
anchoviestopping -0.46246427 0.03897352 -0.020757938 -0.5146 0.37153465 0.10895932 0.14387408 0.37629563 -0.42533448 -0.22200434 -0.6204211 -0.251948 0.1906122 0.06915185 0.28895324 -0.39215082 0.22902797 -0.5602879 -0.1466353 -0.55721503 -0.21853854 -0.008078313 -0.0681554 0.35287455 0.46812582 -0.19889562 -0.06906208 0.7883579 -0.4538253 0.33293802 -0.5033403 0.11882243 -0.016957643 0.20779611 0.51778525 -0.81047845 0.09755721 -0.33473724 0.088925704 0.41989112 0.24898061 -0.45628607 1.0905012 -0.24858142 -0.089435674 -0.53437334 0.09813615 0.31211552 1.4279262 0.21563534 0.36396748 -0.26144296 -0.38358292 -0.77663225 -0.15405819 -0.30577755 -0.46344852 0.46125618 0.12054864 0.27318078 0.34232137 -0.33934456 0.6501894 0.09980456 0.15474461 0.12172771 -0.04007813 -0.22444277 -0.04782473 -0.25806537 -0.5686456 -0.7434687 -0.31517276 -0.05368378 0.3392536 -0.49264923 0.13497628 -0.35767964 0.29925582 -0.21939915 0.17024326 -0.49005753 -0.74611825 0.4175319 0.0066211596 0.3626304 -0.5029593 -0.80853647 -0.15286434 0.25841954 -0.14016484 0.6376121 -0.29794443 -0.0964347 -0.029055335 -0.079136945 0.20070058 -0.0800176 -0.006372525 -0.14673233
